food 0.427394 0.645690 0.448196 -0.675594 0.250969 0.824432 -0.729930 0.064275 -0.384841 1.451404 0.112666 -0.097965 -0.061794 -0.655195 0.430363 0.102114 0.407583 -0.041235 -0.344999 -0.105537 1.318951 0.980917 -0.670462 -0.249369 1.094885 -1.511390 0.924196 0.128281 1.589460 -0.661018 0.391585 0.318357 -0.507383 0.278955 -0.225657 -0.972973 -0.610123 0.859816 -0.879819 -0.027776 -0.485260 -0.087978 0.314954 -0.370210 0.155732 0.884519 0.501545 -0.707592 -0.437798 0.339224 -0.494791 -0.588892 0.367438 -0.007908 1.020768 0.585132 -0.313446 0.291272 0.386474 0.154928 0.068075 -0.471253 -0.368205 -0.514927 -0.626074 0.447533 0.438455 -0.242697 0.136434 0.102727 -0.226860 -1.351107 0.139644 0.561044 0.335811 0.783566 -0.552547 0.429655 0.805957 0.407635 0.945218 0.549816 -0.261583 -0.418926 -0.620621 0.434978 0.816179 0.098406 -0.326937 -0.650996 0.376184 -0.655336 0.095843 -0.110562 -0.358643 -0.464626 0.486776 0.527624 0.225370 0.705995
good -0.357873 0.347035 -0.203930 -0.831801 0.248316 0.865939 -0.418071 -1.463683 -0.234836 0.557309 1.239290 -0.310018 0.534455 -0.522106 0.514816 -0.479628 0.573276 -0.339259 0.284783 0.217508 0.452659 0.225378 -0.343814 0.739370 0.675527 -0.603002 0.497217 0.688864 1.653445 0.709688 -0.985329 0.122810 -0.650814 -0.538912 -0.074006 -0.271148 -1.269935 0.195282 -1.233555 -0.762370 0.520400 -0.370626 -0.327038 -0.635682 -0.075778 0.437268 0.127525 -0.319289 -0.345308 1.335569 -0.538481 -1.235002 0.052760 0.269913 1.256031 -0.380380 -0.407206 -0.116298 0.358337 0.249206 -0.002845 0.511283 -0.159936 0.211938 -0.345748 0.802577 -0.342264 -0.585933 -0.051749 1.298617 -0.158063 -0.824573 -0.059166 0.045946 0.627457 0.689906 0.176284 0.751009 0.164720 0.401284 0.324083 0.083921 -0.043695 0.689411 -0.215724 0.417231 0.445928 -0.432604 -0.539435 -0.476555 -0.024078 -0.584649 0.439158 0.337807 -0.411771 0.114921 0.529241 -0.155600 -0.626293 0.298937
place -0.352475 -0.077733 0.361391 -0.777805 -0.221374 0.544952 -0.050829 -1.042161 -0.023776 1.296110 0.214866 1.305556 0.803115 0.113133 0.728925 0.373657 0.970288 0.354305 0.606178 -0.000910 0.526339 0.688695 0.124108 0.178423 0.445079 -0.878195 1.005244 0.158673 0.122017 -0.492186 -0.721021 0.459536 0.149837 0.113796 0.751501 -1.501015 -0.033820 0.586474 -0.469264 -0.870716 -0.656947 -0.282666 -0.357027 -0.490208 -0.301959 0.850539 -0.163280 -0.329206 -0.196770 0.707290 -0.183873 -0.123989 0.030507 -0.132740 0.872387 -0.331285 -0.051042 -0.593611 0.275886 -0.142231 -0.118864 0.234986 -1.112818 0.165538 0.188690 0.578329 -0.401281 0.094702 0.467900 0.636358 0.582045 -0.759478 -0.104456 -0.207410 0.235941 -0.210632 -0.031999 0.058288 0.556413 -0.233210 0.407685 -0.069486 0.101201 -0.274884 -0.298718 0.114558 0.659062 1.426964 -0.803162 -0.007071 1.128198 -0.753342 0.836248 -0.216759 -0.744088 0.641563 -0.431364 0.909595 0.574429 0.254892
great 0.425925 -0.138337 -0.427911 -0.745100 0.494722 0.581391 -0.132878 -0.441583 -0.535275 0.832842 -0.390970 -0.606018 -0.335732 -0.935795 0.499036 0.081802 1.204315 0.035063 0.384126 0.079524 0.609495 0.185021 -0.192577 0.304490 0.720174 -1.292478 0.931574 1.009107 0.581835 -0.124545 -0.922617 0.299908 -0.205865 0.204463 0.702449 -0.121442 0.440361 0.625661 -1.250258 -0.470999 0.237352 -0.052968 -0.925150 0.243046 -0.648713 -0.024292 -0.151408 -0.459462 0.038657 0.397733 -0.422371 -0.476298 0.426284 -0.243949 0.905195 -0.135941 -0.079100 -0.552232 -0.422953 0.099221 0.097961 -0.273381 0.174187 0.175455 0.359756 0.739786 -1.542837 0.090713 -0.105970 0.457987 -0.160169 -0.460861 -0.338481 0.617260 0.587078 0.405844 0.280674 0.282569 0.078108 -0.475405 1.097126 0.146127 -0.273092 -0.218074 -0.685913 0.261196 -0.136664 0.254596 -0.957540 -0.364542 -0.002621 -0.172229 1.126376 0.347446 -0.250215 0.125226 0.063756 1.232103 -0.450896 0.735732
service -0.114176 0.081504 0.305115 -0.861231 0.415064 0.600236 0.042080 -0.261128 -0.578669 0.328423 0.164750 -0.893882 -0.073672 1.086720 0.292710 0.297663 0.003642 -0.251362 0.024151 -0.165975 0.721857 -0.097312 -0.467584 -0.012351 0.535008 -1.482241 0.493365 0.691478 1.237493 -0.155569 -1.290433 -0.305870 0.156250 -0.240355 0.239593 -0.768223 -0.069341 0.718808 -0.784316 -0.901715 -0.933087 0.163391 -0.109611 -0.545372 -0.006065 -0.205569 0.072262 -0.920073 -0.838572 0.175868 0.225314 -0.463411 0.492881 0.530141 0.684080 0.493673 0.430708 0.556360 0.072415 -0.136468 0.198539 -0.395094 0.014136 0.042452 -0.859743 0.543042 -0.512426 -0.553938 0.377331 0.205457 0.126560 -1.200964 -0.811889 0.782362 0.451583 0.029061 0.128896 0.179068 0.094450 0.453063 0.587552 0.201018 -0.637295 -0.071902 -0.177745 -0.904386 0.713828 0.103696 -0.613744 -0.611056 0.523772 -0.633577 1.467980 0.568923 0.266634 0.148628 0.291018 0.038149 0.256359 0.155354
one -0.405916 1.209155 -0.045073 -0.639606 -0.217432 0.833432 0.042506 -0.087031 -0.306252 0.035580 0.172183 0.523140 0.342627 -0.247548 0.735030 0.602848 1.159416 -0.245568 0.230622 0.253737 0.223894 0.683097 -0.282497 0.326933 0.372075 -1.317144 0.978791 0.697545 0.804569 -0.206548 -0.750703 -0.468009 -0.218198 0.087626 0.055592 -0.331568 0.565263 0.912369 0.469041 0.713351 -0.759136 -0.312472 0.366884 -0.358475 -0.129807 -0.398773 0.007295 0.776304 0.410951 0.097569 -0.651872 -0.567575 0.874432 0.250181 0.417272 -0.467494 -0.281315 0.897752 1.581549 0.036876 -0.376883 -0.084122 -1.008311 0.833856 -0.824559 -0.226972 0.004589 -0.798681 0.307573 0.699085 0.349003 -0.302507 -0.083422 -0.057730 0.472039 -0.091666 0.154987 0.219341 0.135289 0.706507 0.437943 -0.709686 0.459691 0.492798 0.171735 0.258164 -0.552304 -0.575045 -0.053160 -0.650963 0.811519 -0.247359 0.514076 0.873575 -0.426418 -0.179740 -0.048100 0.447471 0.468592 -0.043019
like -0.124389 0.793101 -0.064966 -0.741337 0.091677 1.691942 0.380438 -0.520330 0.192339 -0.603085 -0.028403 -0.171739 0.092899 -0.662013 1.095485 0.108895 0.557625 -0.366278 -0.397065 0.444204 0.254039 1.189957 0.051341 0.230993 0.614133 -0.994531 0.221189 0.639790 0.052460 -0.359641 0.043173 0.214552 0.374339 -0.071457 0.264725 -1.062365 -0.535049 0.336416 -0.617046 0.683270 0.321822 -0.783178 -0.401911 -0.862670 0.259466 0.036730 -0.193871 0.294448 -0.410025 0.138924 0.564418 -0.492050 0.245347 0.601542 0.150706 -0.342436 0.420848 0.149782 0.167185 -0.137238 0.537453 -0.369482 -0.482942 0.064208 -1.191524 0.534061 -0.096432 0.030827 -0.566943 1.019100 0.397487 -0.012191 0.187968 -0.297525 0.380858 -0.129517 -0.114370 0.585855 0.451437 0.331821 0.020875 0.033444 -0.613699 -0.584431 -1.048000 0.131808 0.212093 -0.067503 -0.561837 -0.601840 1.120051 -0.373372 0.987556 -0.335094 -0.868110 0.382497 -0.662353 0.144678 -0.994435 -0.727378
get -0.435085 0.629629 -0.336910 -0.395030 0.095393 1.041660 0.223913 -0.083126 -0.269558 0.526548 0.146563 0.101483 0.347700 0.446693 0.517644 -0.476630 0.053421 0.484716 0.526956 0.093613 -0.160648 0.327078 -0.251548 -0.457180 -0.016004 -1.200692 0.907972 0.641198 0.339942 0.297888 -0.254228 0.821700 -1.250464 -0.039092 -0.096841 -1.244745 0.144237 0.999905 0.166863 0.136460 0.486583 -0.030552 0.323785 -0.044870 0.514933 -0.827927 0.188606 -0.778435 1.017523 -0.276156 -0.088760 -1.611168 0.259072 0.409701 0.810879 -0.155719 0.502211 -0.030629 0.644284 0.140143 0.534822 0.016895 -0.413611 0.668606 -0.472673 1.379456 -0.334315 0.009382 -0.111768 0.602448 1.099541 -0.160167 0.113330 -0.222650 0.380690 0.254165 0.365014 0.552267 0.687823 -0.063218 0.526197 -0.906928 -0.223169 -0.287956 -0.054685 0.380543 0.299601 0.481795 -0.001292 -0.715830 0.238774 -0.458263 1.091984 0.057547 0.311732 -0.247641 0.413101 0.675637 0.090761 -0.062452
would -0.928012 -0.294317 -0.025747 -0.038831 0.286310 1.168006 0.320199 -0.044995 0.086123 1.006409 -0.092457 -0.280199 0.383712 -0.669750 1.176300 -0.658298 0.635669 0.639743 0.596015 -0.279540 0.121843 0.567685 -1.208156 -0.440932 0.629966 -0.703139 -0.076103 0.125865 -0.128702 0.247161 -0.736179 -0.396353 0.101256 -0.378006 -0.169768 -0.190691 -0.044497 0.351804 -0.096953 -0.123328 0.239774 -0.219921 0.357057 -0.323671 -0.503661 0.191969 -0.451479 1.040142 -0.280020 -0.191320 -0.184554 -0.163181 0.603194 0.093030 1.521516 0.676939 0.237800 0.367935 0.340474 0.485699 0.468822 -0.698483 -0.500449 0.297533 -0.189388 1.170633 -0.608373 0.403780 -0.194297 0.559484 0.530114 -0.933264 0.515878 -0.271058 0.191187 0.236401 0.869394 0.065858 0.312903 0.607248 0.122281 0.270107 -0.501059 0.279088 -0.117959 -0.118243 0.703613 0.584269 -0.278964 0.525230 1.180820 -0.731557 1.154093 0.222776 -0.306033 0.103340 -0.721408 0.690211 0.500146 -0.792232
time 0.192219 0.386637 0.720173 -0.076886 -0.216207 0.744129 -0.158208 -0.221212 0.422173 0.675618 0.248852 -0.045079 -0.469967 -0.752926 0.334490 0.541374 0.789162 -0.743627 -0.078157 0.150174 0.232126 0.201997 -0.173632 -0.041055 0.391325 -1.007059 0.949037 0.929085 0.218964 0.899065 -0.272252 0.171675 0.298987 -0.204831 -0.132030 -0.628513 -0.056849 1.172373 -0.830797 -0.234771 0.117839 -0.804870 0.532298 0.244016 -0.139637 -0.020677 -0.256089 0.317985 0.413391 -0.198999 -0.222406 0.244979 0.368709 -0.452287 1.449944 0.401972 0.864706 0.046041 0.761080 0.895989 0.406350 -0.127728 -0.276667 0.020682 -0.277206 1.379454 -0.574595 0.377066 -0.215300 0.244833 0.229571 -1.022871 -1.214440 -0.074032 0.765504 -0.005336 0.166710 -0.173966 0.231912 0.105223 0.349795 -0.692527 0.259896 -0.429428 0.373538 -0.229905 -0.283770 0.562362 -0.205255 -0.293017 0.071204 -0.122561 0.819779 0.684322 -0.450540 -0.315494 0.392607 -0.135664 0.497137 0.117591
back 0.239102 -0.258113 0.578338 -0.862203 -0.149838 -0.100507 0.034525 -0.692619 0.108926 0.220021 0.217774 0.094933 0.256339 0.480326 1.222880 0.323718 0.704565 0.212214 0.624224 -0.045419 -0.092777 0.587969 -0.901002 0.233369 0.035772 -0.685049 0.600703 0.210881 0.524648 0.197462 -0.323992 0.605006 0.155393 -0.179560 0.484497 0.035952 -0.107750 0.484057 -0.395167 0.073591 -0.141631 0.393382 0.092568 0.031826 -0.365203 0.521108 -0.200593 -0.196534 -0.483600 -0.073492 -0.526098 -0.611749 0.639977 0.073513 -0.124552 0.376131 0.954460 0.760949 0.845108 1.289430 0.797033 -0.300787 -0.746423 -0.146804 -0.350069 0.724890 -0.540009 -0.393748 -0.150201 0.609388 0.592571 -0.644344 -0.640819 0.059370 0.594770 0.841983 0.085272 0.290321 0.621592 -0.875081 0.489034 -0.047343 -0.276417 -0.565433 -0.246708 -0.183319 0.405449 0.858497 -0.203523 -0.313721 0.585581 0.046868 1.309447 -0.226191 -0.600445 -1.002464 -0.166758 0.648885 0.362658 -1.350496
really -0.117666 0.337462 0.145349 -0.092256 0.302724 0.287567 -0.811383 -0.963231 0.230441 0.310931 -0.278475 -0.516866 0.455288 0.114173 1.233047 0.272007 0.587194 -0.208558 0.247334 0.455193 0.777680 0.397976 -0.439046 0.531367 1.146643 -0.761154 0.016974 0.330949 -0.121336 -0.249010 -0.928056 0.017409 -0.329141 -0.261200 -0.019324 -0.036453 0.097150 0.451799 -0.153964 -0.345656 -0.401177 -0.735595 0.073745 -0.445518 -0.489703 0.393237 0.363284 -0.566889 -0.142721 0.314284 -0.042015 0.000042 -0.039286 -1.061063 1.366171 0.072683 -0.528977 -0.496458 0.247730 0.440595 0.686292 1.051205 -0.852606 0.020260 -0.237311 0.198922 -0.754441 0.467715 -0.907053 1.210777 0.176704 -0.774827 -0.118270 -0.559665 0.206244 0.337947 -0.103490 0.196487 0.266632 -0.250540 0.148912 0.008884 -0.835907 0.247804 -0.495111 0.901758 0.401701 0.038933 -0.516972 -0.299971 0.230708 -0.276477 0.646669 0.611874 -0.354859 0.149957 0.497332 0.363252 0.156774 0.907885
go 0.195131 -0.096683 0.447004 -0.417865 0.030954 0.084012 0.414417 -0.103267 0.408235 0.637637 0.375032 0.034292 -0.217200 0.752975 0.583179 0.071464 0.232884 0.245243 0.649653 0.166321 0.124836 0.346989 -0.068194 -0.583648 0.249316 -0.441265 1.299198 -0.115752 0.596367 0.414155 -0.619905 0.325194 0.274104 0.484695 -0.193239 -0.590715 -0.100592 0.627573 -0.507968 0.245661 -0.040115 0.661504 0.661326 -0.348305 -0.337326 0.591080 -0.331771 0.118519 -0.289021 0.548632 -0.215964 -0.474953 0.778114 -0.112042 0.573175 -0.536711 0.063770 -0.022891 0.249930 0.100753 -0.076768 0.074399 -0.922306 0.277090 -0.707271 0.744233 -0.133961 -0.756262 -0.410071 0.231628 0.792298 -0.777271 0.198633 0.047365 1.094100 0.437010 0.885428 0.532920 0.529761 -0.698616 0.940265 -0.396346 0.105333 0.046606 -0.655325 0.697718 0.091954 0.276349 0.271153 -0.318641 1.151276 -0.404962 0.422487 0.260424 -0.494233 -0.451714 -0.321127 0.295654 0.183107 -0.072862
got 0.346518 0.905894 0.473126 0.345013 0.038792 0.576152 0.348092 -0.516856 0.749803 -0.646142 0.194106 0.299293 -0.126984 0.294504 0.989584 0.122189 0.339816 -0.098360 -0.008396 0.004006 -0.532945 0.639123 0.213526 -0.117975 0.475160 -1.507356 -0.017402 -0.346065 0.884172 0.045050 -0.111444 -0.020854 0.327883 0.327495 -0.141255 0.159692 -0.018196 0.927052 -1.145453 -0.198665 -0.259660 0.190750 -0.105437 0.760229 -0.761928 -0.579868 0.263936 1.016825 -0.029309 0.987601 -0.401502 -0.153642 -0.202565 -0.408494 -0.149319 0.224088 -0.119317 0.716580 0.484983 0.476535 1.257882 -0.119996 -0.129973 0.405253 -0.489174 0.522930 -0.680333 -0.292640 -0.406966 0.451904 0.180963 -1.152375 0.027299 -0.102914 -0.557262 0.684128 0.091904 -0.098998 0.851505 0.319048 0.317784 -0.428945 -0.353201 0.062064 0.005750 -0.266307 -0.152203 -0.015360 -0.491974 -0.172523 0.326791 -0.222639 1.073641 0.261757 0.283584 0.276914 0.354904 0.165258 0.925115 0.229877
nice -0.055861 0.332741 0.394684 -0.598468 0.388887 0.444915 0.296760 -0.013376 -1.193757 0.220968 -0.273162 -0.137312 0.168852 -0.633778 0.707533 0.459175 0.120088 -0.242694 -0.555391 0.610321 0.544460 0.437723 -0.060190 0.043824 0.120815 -0.392586 -0.026299 0.331232 0.345683 0.134688 -0.897063 0.257983 -0.152081 0.007148 0.115287 -0.898425 -0.141549 0.790622 -0.798872 -0.667491 -1.181361 -0.154502 0.354873 -0.312161 0.506147 0.412748 -0.503167 -0.430003 -1.339592 0.837427 0.039023 -0.144108 0.105425 0.014580 0.511728 0.342240 -0.273507 0.466369 0.303547 0.483236 0.806008 -0.272760 -0.259212 0.002142 -0.731569 0.913639 -0.795845 -0.393076 0.103319 0.661738 0.401993 -0.200877 -0.281805 -0.583331 0.425601 0.721906 0.332064 0.010832 -0.015271 0.584712 -0.136708 -0.126552 -1.081772 0.732972 -0.817953 0.176369 -0.194425 0.635533 0.042781 0.262704 -0.161954 -0.034759 0.419405 0.380655 0.349715 0.592462 0.013355 0.914996 0.600729 -0.245303
also -0.303422 0.401184 -0.076744 -0.751155 -0.926604 0.581353 0.146916 -0.631493 0.192135 0.130047 -0.367951 -0.450838 0.174329 -0.058961 0.893518 0.276978 0.331802 -0.398182 -0.098072 0.311039 1.073070 0.407052 0.165221 0.743055 0.286224 -0.987602 -0.094244 -0.194470 0.786151 0.564798 -0.447649 -0.158417 0.059869 0.017488 -0.415739 -0.162148 -0.070437 0.080493 -0.940930 -0.958847 0.225413 0.310647 -0.253601 -0.151188 0.206294 -0.546517 0.457717 0.492890 -0.600061 0.732418 0.027889 -0.775765 0.311735 -0.531971 1.033309 -0.497102 0.222520 -0.864808 0.343357 0.403171 0.241419 0.300721 0.787656 -0.730667 0.332107 0.659236 -0.114243 -0.426165 -0.243168 0.290244 0.512182 -0.820201 -0.527803 -0.735801 0.219417 0.430142 0.581099 0.204742 0.032891 -0.183891 -0.419611 -0.142169 -0.536508 0.289565 -0.052791 0.268529 -0.225419 0.094143 -0.269503 -0.393469 0.886179 0.408348 0.345990 0.432418 0.279161 -0.322101 -0.246763 0.705171 -0.499258 0.015950
well 0.636740 0.263326 -0.206788 -0.082524 -0.283975 0.544632 -0.257099 0.228520 0.363052 0.596015 0.319229 -0.062378 -0.066604 -0.194534 0.877042 0.062521 1.140021 -0.320511 0.289242 0.128607 1.144035 -0.077543 -0.962318 0.691405 0.609253 -0.873575 0.087854 0.364656 1.245347 0.023629 -0.220093 0.033407 -0.887328 -0.427027 -0.254101 -0.136984 0.661390 0.650620 -0.832029 -0.169011 -0.349890 -0.152631 0.353585 -0.112405 0.064347 0.034010 -0.417963 0.347235 -0.368085 0.178206 0.673048 -0.788764 -0.025708 -0.940746 0.646089 0.243860 0.492529 -0.172637 0.130929 0.870126 0.150779 -0.005011 -0.203555 0.272877 0.284329 -0.177100 -0.364129 -0.541672 0.586057 -0.270704 0.210622 -0.501159 -0.482962 -0.762967 0.522411 0.488818 -0.245738 0.140268 0.040908 -0.343445 0.690431 0.573032 -0.787902 0.302337 0.129451 0.321993 -0.175876 0.379451 0.015532 -0.455150 0.258328 -0.045103 0.663603 0.121673 0.523936 0.110620 -0.593494 0.240007 0.016829 -0.217992
us 0.713694 0.310963 -0.301975 -0.537701 -0.043207 0.798515 -0.430182 -0.201008 -0.260313 0.565845 -0.659648 0.287328 0.532783 -0.444489 0.194875 -0.036489 -0.521592 0.789017 -0.307864 -0.098715 -0.154411 0.403504 -0.049877 -0.032264 -0.098222 -1.865556 0.804419 0.351698 0.522821 0.429983 0.005760 0.077458 -0.127853 0.678031 -0.366025 -0.314488 -0.092018 0.191042 -0.228375 -0.478438 -0.119474 -0.308555 0.118363 -0.145860 -0.028023 -0.288598 -0.617419 -0.168295 0.071427 0.422372 -0.944937 0.694105 0.783373 0.109646 0.370168 0.755857 0.346446 0.238899 1.920489 0.148560 1.298209 -0.050565 0.215655 0.231501 0.001251 0.724671 -0.894770 -0.263577 -0.642645 0.330320 0.617184 -0.007957 0.126551 -0.073945 -0.380391 -0.157213 0.579707 0.176630 0.276575 -0.457375 0.247115 0.495893 -0.244869 -0.096806 0.263529 -0.772547 -0.724425 0.658490 0.124398 -0.180311 0.051968 -0.364714 0.656167 0.618539 -0.235086 -0.507975 -0.508186 -0.198706 0.655675 0.216025
even -0.057057 -0.201378 -0.244781 -0.679283 -0.410379 0.363767 -0.470688 -0.235793 0.319359 -0.002712 -0.630163 -0.048415 -0.010155 -0.112505 0.658346 0.067078 0.203250 -0.381079 -0.223599 0.006938 -0.079655 0.118230 -0.225459 -0.090668 0.332609 -0.962583 0.928525 0.479502 0.842372 0.210638 -0.222914 0.188846 -0.943252 0.535897 -0.020065 -0.826872 -0.111252 0.354246 -0.522202 -0.007618 -0.823597 -0.700205 0.835036 -0.768237 0.520339 -0.723708 0.387457 0.413827 -0.819109 0.192301 -0.315420 0.145174 0.160215 -0.040826 0.025305 -0.281297 0.225511 -0.131489 0.088451 -0.080501 0.557357 -0.659293 -0.621048 0.897146 -0.631172 -0.475155 -0.173390 0.172662 -0.365862 0.729666 -0.159118 -0.493267 -0.146660 -0.225401 -0.077035 0.366739 0.885770 0.499769 0.282436 0.137374 0.636136 0.168886 0.124689 -0.277555 0.208582 0.385906 -0.416820 0.835288 -0.862358 -0.696960 0.180449 -0.120518 1.324297 0.129946 0.404488 -0.665030 -0.130007 0.176088 0.178388 -0.057803
restaurant -0.703336 -0.307489 0.070430 -0.546320 -0.432654 0.540319 0.076635 0.389040 -0.343443 1.093874 -0.064506 -0.365421 -0.142083 -0.507577 -0.642736 0.275187 0.472982 0.332746 -0.145262 -0.523092 0.650656 0.400554 -0.323472 0.150668 0.438848 -0.807915 0.142815 0.979012 1.071713 -0.232437 -0.664381 0.557318 0.404973 -0.208576 -0.050588 -0.895186 0.686696 0.292169 -0.277946 -0.284471 -1.059940 -0.377249 0.300566 -0.396108 -0.057045 1.197454 0.986113 0.013966 -0.304008 1.100529 -0.371996 -0.454658 0.501703 0.393805 0.279889 0.534222 0.221847 -0.200616 0.812313 0.231100 0.953283 -0.571970 0.043310 0.033093 -0.661063 0.238399 0.111797 -0.410978 0.121301 0.469363 -0.212991 -1.007471 0.198853 -0.786834 0.240456 0.233358 0.033179 0.286421 -0.061960 -0.190053 -0.154639 0.413364 0.861874 -0.050203 -0.580431 -0.172197 -0.861658 0.834582 0.191548 0.211984 0.089110 0.431843 0.181680 0.099113 -0.367763 -0.487519 -0.510337 -0.032866 0.208003 -0.116287
dont -0.183515 0.927990 -0.405361 -0.959442 -0.227321 0.720374 0.040958 -0.226342 0.715092 -0.200967 -0.466054 -0.099854 0.018538 0.250541 0.383864 0.329653 0.091136 0.492548 0.768977 0.509334 0.113277 0.342994 -0.464491 -0.222719 -0.042517 -0.745236 0.787993 -0.190223 0.118000 0.118468 0.302131 0.611554 -0.177783 0.552145 -0.246638 -0.727153 -0.485686 0.153922 -0.373972 -0.226142 -0.287784 0.219456 0.746396 -1.255104 -0.271157 -0.109921 0.191942 -0.176546 -0.497505 -0.067233 -0.074456 -1.304722 0.579237 0.117588 1.283483 -0.391832 0.948864 -0.157900 0.240428 -0.175207 -0.719055 0.005004 -0.199192 0.104395 -1.069089 1.174084 0.511918 -0.425801 -0.996683 0.456492 0.020730 -0.611494 -0.813033 -0.107323 0.690561 -0.204788 0.522373 0.567229 0.459013 0.206809 -0.722113 -0.175919 -0.377690 0.199382 0.201944 0.297373 -0.125748 0.755529 0.322962 -0.389785 0.200385 0.478740 0.635231 0.234509 -0.297086 0.281138 -0.447549 0.306165 -0.178865 -0.501312
first -0.562706 -0.351295 0.177202 -0.710860 -0.389892 1.006127 0.064187 -0.193932 0.175247 0.535066 0.511404 0.079159 -0.348898 -0.612594 0.142034 -0.320444 0.588162 -0.486816 0.497732 0.024764 0.006950 0.676667 0.360076 -0.453378 0.465045 -0.634350 0.517952 0.835675 0.564170 0.315902 -0.302208 -0.115749 0.107576 0.067679 0.486227 -1.442368 0.742507 0.587330 0.040584 -0.313735 -0.103698 -0.520659 0.851550 0.160916 -0.350711 0.004633 0.670502 0.068238 0.116219 -0.014907 -0.203415 -0.378370 0.276606 0.014420 0.189863 -0.089306 0.212232 0.428558 1.041521 0.979978 0.245071 0.000468 -1.464006 -0.132934 -0.376556 0.011774 -0.322837 0.228549 -0.234800 -0.124486 -0.361097 -0.859607 -1.271468 -0.031691 -0.144329 -0.039723 -0.080902 -0.076897 -0.141603 0.387174 -0.522783 -0.854755 0.955605 -0.093813 0.205433 -0.129602 -0.133664 0.340636 -0.086616 0.231237 0.443017 -0.832814 0.508359 0.875973 -0.730556 0.026031 0.218873 -0.131916 0.311332 -0.534707
order 0.229311 0.097056 0.535645 -0.861526 -0.873767 0.734378 0.829617 0.447291 0.475467 0.625455 -0.335404 -0.287805 -0.110129 -0.273503 0.784801 -0.422140 0.521121 0.287187 0.333857 0.851470 -0.207319 0.496604 -0.034009 -0.385935 0.563514 -0.757024 -0.241244 -0.228655 0.749900 0.098374 0.281161 0.281756 -0.263588 0.276764 -0.105568 -0.717217 -0.532929 0.718647 -0.591825 -0.489162 -0.594925 0.061887 -0.271402 0.233905 -0.146812 0.146418 1.238593 0.235814 -0.135951 -0.519523 -0.208160 -0.662583 0.335298 0.652042 0.440903 -0.226056 0.272889 0.303921 0.857611 -0.413652 -0.138098 -0.144443 -0.041703 1.326964 -0.754697 1.077810 -0.175072 -0.104347 -0.249727 -0.950014 0.821038 -0.428068 0.082968 -0.219611 -0.260392 0.480612 0.288524 0.363812 0.552558 0.273921 0.165993 -0.604712 0.257604 -0.004944 0.022326 0.160382 0.055405 0.497166 -0.206777 -0.474419 0.633474 -0.559946 0.314702 0.337677 0.503470 -0.856127 0.523258 0.256969 0.115856 0.481150
im 0.437862 0.661926 -0.027544 -1.070004 -0.165807 0.943686 -0.664625 0.869543 0.277611 -0.250696 -0.326600 0.731388 0.200104 0.170856 -0.382564 0.365230 0.601841 0.009342 -0.154953 -0.174004 0.411311 -0.050791 -0.236208 -0.466502 0.516412 0.070189 0.443504 0.386855 0.566400 0.657313 -0.955079 0.187203 0.417123 -0.242384 -0.216848 -0.765851 0.006118 0.036544 -0.318760 -0.838408 -0.204408 -0.484375 0.234877 -0.050111 -0.506108 1.030052 -0.604292 -0.333447 0.279861 -0.458456 -0.267233 -0.506756 0.406528 -0.061349 0.439451 -1.086323 0.207411 0.249989 -0.298269 0.636211 0.197591 0.502244 -0.294210 0.407153 -0.829987 0.616933 -0.233448 0.485665 -0.456525 0.724756 -0.113963 -1.062501 -0.398322 -0.653228 -0.236784 0.101974 -0.237778 0.034379 0.519136 -0.292979 1.117951 -0.242690 -0.290671 -0.114014 0.986741 0.184999 0.422437 0.587287 0.101916 -0.181840 0.889971 0.643969 0.180668 0.231447 -0.476831 -0.733753 -0.154359 0.055784 0.211640 0.393798
ordered 0.072737 0.030170 0.340859 -0.595846 -0.649120 0.431890 0.348074 0.035229 0.327307 0.402397 -0.488395 0.195103 -0.282820 -0.329289 0.703456 0.182815 0.665046 -0.193213 -0.357516 0.066325 0.097121 0.477675 -0.320991 0.354049 0.832195 -0.470660 0.231997 0.669770 0.432646 0.508804 0.061702 0.841982 -0.218519 0.333301 -0.341543 -0.110410 -0.851526 0.747673 -0.372454 -0.356635 0.474701 -0.258850 0.276130 0.576204 0.039100 0.402716 0.723247 -0.629484 0.049953 0.257337 -0.152949 -0.567944 0.204990 0.261134 0.734452 0.810632 -0.132106 0.475230 0.825123 -0.169239 0.054260 -0.387313 -0.077490 0.002842 -0.084506 0.719354 -0.650935 -0.492528 -0.319299 -0.034203 -0.120760 -1.187921 0.423655 -0.350155 -1.329061 0.692285 -0.281810 1.248825 0.270239 -0.419115 -0.003394 0.288855 0.500863 0.297658 0.641745 -0.098487 -0.446137 0.347374 -1.226766 -0.437330 0.813923 -0.219197 0.290614 0.408469 0.752986 0.251230 -0.038057 -0.320710 0.180231 0.513508
love 0.119268 0.159254 0.412945 -0.215325 0.127311 -0.139968 0.493263 0.219982 0.737405 0.627724 -0.264433 -0.001213 -0.698510 -0.113910 -0.518445 -0.307868 0.180899 -0.429667 0.029300 0.377994 0.627385 0.536207 0.256587 -0.053932 0.025947 -0.863265 1.022793 -0.138153 0.206565 -0.673558 -1.388649 0.369163 0.725345 -0.103510 -0.279639 -1.010015 0.274520 0.002983 -0.115628 -0.535366 -0.113388 0.205918 0.078285 0.159519 -0.498459 -0.017561 0.148356 -0.342957 -0.306338 0.218333 0.112194 -0.739338 0.816654 -0.266224 0.633148 -0.486716 0.191202 0.629353 0.022641 0.202092 -0.049596 -0.112873 0.333902 0.288361 -0.176875 0.138256 -1.325844 -0.445657 -0.384026 1.186442 1.008247 -0.503732 0.038161 0.257050 -0.486133 0.285709 0.039007 0.399311 -0.358030 -0.119082 -0.293077 -0.588317 0.259613 -0.731708 -0.077880 0.900225 0.800090 0.728738 0.164298 -0.066107 0.564716 -0.027777 0.339913 0.377746 -0.600329 0.791128 -0.479168 0.051481 -0.714220 0.153775
much -0.004714 0.821611 -0.244346 -0.133111 0.190408 0.453602 0.407877 -0.279475 0.076502 0.462107 -0.053299 0.484695 0.229203 0.235732 0.389582 0.633512 0.067863 -0.654032 -0.079460 0.250903 0.353940 0.956604 -0.017994 -0.179213 -0.138605 -0.749209 -0.292690 -0.042456 0.453889 -0.517220 -0.738560 0.353513 0.038312 0.305874 -0.436535 -0.535105 -0.099956 -0.203680 -0.560217 -0.552051 -0.672600 -0.205696 -0.064567 -0.364828 -0.793409 -0.321517 -0.234615 1.201378 0.899445 -0.137515 -0.421665 -0.316249 0.337241 0.390321 1.052046 -0.331176 0.084285 0.350645 0.048313 0.113838 0.115357 -0.416281 -0.305685 -0.565504 -0.002265 0.227523 -0.830215 0.627230 -0.736274 1.413090 0.257538 -0.866481 -0.003699 -0.255574 0.157812 0.928285 0.342420 0.263865 -0.141131 0.356655 0.563512 0.078623 -0.543782 0.151835 -0.087644 0.725632 0.613687 0.131357 -0.728902 -0.884810 -0.034204 -0.096664 0.533915 0.003092 0.262145 -0.381697 0.300401 -0.077612 0.257446 -0.658536
little -0.211432 0.442948 0.283248 -0.069608 0.382745 -0.051035 -0.127017 -0.194644 -0.711934 0.035484 -0.531095 0.089507 -0.150096 -0.226578 1.171673 -0.162703 0.345055 -0.662666 0.227893 -0.143476 0.140613 0.399412 0.518548 -0.014903 0.753193 -0.881752 -0.208657 0.386673 0.325716 0.270216 0.232140 0.280054 -0.494994 0.131834 0.557333 -0.562997 0.633846 0.513786 -0.601284 -0.208225 -0.327347 -0.207610 0.211171 0.150303 0.049541 1.223109 0.160197 0.655951 1.008507 -0.044338 -0.530095 -0.474786 0.132141 0.425662 0.958892 0.121494 -0.081789 -0.549712 0.030665 -0.139708 0.012314 0.035620 0.402165 -0.105633 0.070371 0.475355 -0.851421 0.798038 -0.129413 0.543950 0.738385 -0.809813 -0.138571 -0.136387 -0.118312 0.638706 0.180498 0.398058 -0.284064 -0.067831 0.010239 -0.127321 -0.825496 0.003535 0.035279 0.840761 0.071087 0.527409 -0.365168 -0.047380 0.058824 -0.625581 1.071281 -0.802824 -0.578312 0.135953 0.288103 0.141228 -1.069855 -0.449526
didnt -0.311054 0.838128 0.635091 0.024718 0.065871 0.328056 0.125528 -0.078248 0.333540 -0.268153 -0.547213 -1.008287 0.144045 -0.698059 0.873275 -0.493668 -0.022533 0.598592 0.139602 -0.350144 0.575184 1.517058 -0.406867 -0.598177 0.596149 -0.743699 0.164514 -0.368837 -0.016058 0.076507 0.440263 -0.381379 -0.484286 -0.073528 -0.350401 -0.560336 -0.282236 -0.188264 -0.236091 -0.430430 -0.372609 -0.285307 1.051157 -0.184827 0.261666 -0.505704 0.105509 0.501121 -0.447992 0.154805 -0.201631 0.089010 0.056196 -0.223720 1.129310 -0.308748 -0.049862 0.108658 0.774858 0.286632 1.219670 0.183316 -0.512256 0.604316 -0.252407 -0.208826 -0.564900 0.306867 -0.186100 1.108304 0.108185 -0.719840 -0.003935 0.064825 0.802538 -0.236196 0.504329 -0.315902 0.163538 -0.236949 0.048167 0.411672 -0.009681 0.215265 0.329614 0.461092 0.302542 0.353587 -0.364466 -0.840974 0.001597 -0.184185 0.745442 0.800182 0.023506 -0.610166 -0.257383 -0.238527 -0.356157 -0.352293
ive 0.423342 0.016784 0.083826 -0.478308 0.542123 0.101926 -0.134279 -0.261324 0.114359 0.111974 0.067768 0.227424 -0.027987 -0.722485 0.689266 0.708381 0.410719 -0.210836 0.661311 -0.125559 0.734102 0.382855 -0.513240 0.433676 0.059986 -0.976970 1.224763 -0.355786 0.680267 0.505254 -0.155426 0.894032 0.237665 -0.568470 0.858590 -0.518190 0.373299 0.986094 -0.609914 0.276121 0.196633 -0.753665 -0.538729 0.156131 0.255833 0.572071 0.381540 -0.171191 0.056694 -0.004625 0.496376 -0.374135 0.622724 -0.454195 0.250443 -0.679226 -0.153370 0.394577 -0.505863 -0.560734 0.231974 -0.246227 -0.197006 -0.021819 -0.741528 0.046278 -0.520484 -0.474602 0.044665 -0.142824 0.062036 -0.337135 -0.763532 -0.955894 -0.287268 0.286843 0.076829 0.438657 0.849607 0.507359 0.317767 -1.231070 0.511659 -0.211310 0.555700 0.312496 -0.009357 0.261239 -0.567355 -0.022162 -0.148227 -0.564582 0.535772 0.163791 -0.546767 -0.274205 -0.575063 -0.065262 -0.301378 -0.264815
best 0.033837 -0.598660 -0.143163 0.032110 0.317047 0.217404 -0.405583 0.179589 -0.143236 0.068259 0.082634 -0.270064 0.434907 -0.133323 0.225595 0.650477 0.164148 0.659089 0.105405 0.776418 0.606547 0.558455 -0.288908 -0.415538 0.228251 -1.300058 1.282823 0.716185 0.720186 -0.306557 -0.353170 0.198880 0.066873 -0.237719 0.656871 -1.036206 0.616616 0.948544 -0.681030 0.668623 0.293190 -0.159982 0.061340 -0.388961 -0.285857 0.515738 0.412728 0.145019 -0.018150 0.340467 0.261926 -1.308639 -0.040677 0.558087 0.410896 -0.596277 -0.619897 -0.426370 0.440135 -0.357819 0.171884 0.151369 -0.093263 -0.236762 -0.538767 -0.002364 0.025977 -0.166921 0.188636 0.090241 0.602525 -0.400397 -0.507224 -0.575119 -0.337720 0.613307 0.375935 0.379091 0.339398 0.706548 -0.036590 0.778050 0.217797 1.281983 -0.417490 -0.161496 0.490231 0.234751 -0.574708 0.253315 0.096364 -0.132126 0.268832 0.554593 -0.249088 -0.254615 -1.177426 -0.273849 0.267486 0.152344
friendly -0.215312 0.023544 0.859300 -1.014988 -0.279586 0.350885 -0.335604 0.015729 -0.550155 0.476120 0.162768 -0.385584 -0.011520 -0.057175 0.855863 0.540002 0.378141 -0.209855 -0.441202 0.435978 0.712343 0.645092 -0.708041 0.130412 0.093882 -0.858016 0.402744 0.910185 0.411882 -0.295161 -0.771599 0.447330 -0.048377 0.476332 -0.194751 -0.340066 0.638687 0.276254 -0.561185 -0.407926 -1.485862 0.654722 -0.197736 0.097315 0.478984 -0.196525 -0.572366 -0.374745 -0.415263 0.118052 -0.416581 -0.169284 0.148929 -0.437081 0.325792 -0.385535 0.047777 -0.352662 0.404396 0.597687 -0.555089 -0.080109 0.228116 -0.044570 -0.518637 0.186767 -0.927038 0.021871 0.373855 0.311426 0.232605 -0.366309 -0.394764 0.665097 -0.002854 0.869156 0.257090 -0.237668 -0.667345 0.345150 0.427069 -0.583082 -0.521063 0.366106 -0.483618 -0.362937 0.262416 0.569292 0.151708 -0.553571 -0.170180 -0.685713 0.652018 0.392719 -0.190453 0.678028 -0.016466 0.956261 0.209739 0.690347
came -0.191439 0.648062 0.155439 -0.080432 -0.427075 1.020274 0.030660 -0.235444 -0.145361 -0.007906 -0.208043 -0.060376 0.343386 -0.361017 0.575161 0.021780 0.239868 -0.041827 0.584302 0.220247 -0.051592 0.508058 0.409817 1.029304 0.022096 -0.985990 0.018769 1.018818 0.416769 -0.383162 0.026194 0.792208 -0.281036 0.257653 -0.726574 -0.395695 -0.440895 0.457099 -0.139314 -0.178915 -0.128819 0.706899 -0.245913 0.547370 -0.027314 0.736771 0.793931 0.006344 0.080986 0.152508 0.179871 0.013510 0.791420 -0.200624 -0.159226 0.149708 0.105892 0.564212 0.943693 0.541389 1.048505 -0.502353 -0.661967 0.284792 0.140082 0.862003 -0.296311 -0.720828 0.711940 0.954033 -0.298327 -0.187771 -0.055393 -0.005829 -0.114271 1.115634 -0.261844 0.284854 -0.155628 -0.279968 0.216106 -0.009368 0.015882 -0.184674 -0.633924 -0.248332 0.485777 0.101001 -0.644034 -0.709277 0.117345 -0.356474 0.688133 0.737331 1.113229 -0.756495 -0.029689 -0.303374 0.422723 -0.244386
try -0.141554 0.391997 0.443676 -0.564381 -0.028771 0.677409 0.378451 -0.135448 0.088650 0.497130 0.067910 -0.319057 0.544014 0.384680 0.861009 -0.101625 0.947474 0.226829 0.093105 0.358272 0.741139 0.577710 0.468849 -0.297407 1.124104 -0.217834 0.260518 -0.407562 0.952609 -0.011121 -0.474619 0.186662 0.231496 0.111257 0.172658 0.509618 -0.556021 -0.056052 -0.157818 0.123556 -0.367561 0.039421 -0.600559 0.038720 -0.622619 0.350181 0.317550 -0.205837 0.025350 -0.087246 -0.452455 -0.839194 -0.494847 -0.105408 -0.167197 -0.580624 -0.224782 -0.369431 1.190687 0.571959 0.605464 0.043183 -0.050692 0.219666 0.086862 0.389792 -0.037089 0.435443 0.505081 0.470843 0.969796 -0.724816 -0.738877 -0.045631 0.304603 0.099673 1.022564 0.375417 0.855104 -0.169585 0.352705 -0.098856 0.360404 0.059409 0.666538 -0.407395 0.306638 0.540555 0.227665 0.191238 0.452753 -0.168784 0.667532 0.472692 -1.049311 -0.130070 -0.463746 0.785566 -0.313399 0.201309
could -0.167363 0.489985 0.006182 0.772776 -0.340248 0.566065 -0.040238 -0.524674 -0.794701 0.418767 -0.431995 0.081040 1.036926 0.461986 -0.410783 -0.108129 1.311472 0.701636 0.100613 0.504626 0.310846 0.457355 -0.178393 0.323485 0.337292 -1.332492 0.747251 -0.028013 0.086004 0.044245 -0.657859 -0.181795 0.061113 -0.822270 -0.403043 -0.322738 -0.493265 -0.219121 -0.156332 -0.415951 -0.638055 -0.636621 0.328962 0.421063 0.385057 0.656574 0.105984 1.134235 0.061258 0.251985 0.065504 0.216595 0.585764 -0.099755 0.248796 0.740303 0.216907 0.180394 0.096169 0.338095 0.309859 -0.190008 0.293998 -0.114267 -0.649684 0.616028 -0.241988 0.143482 -0.579223 0.311026 0.858765 -0.143971 0.302759 -0.302850 0.385911 0.253017 1.185241 0.518664 0.501184 0.100350 0.006880 0.264021 0.060476 0.038303 0.129583 -0.246537 0.414210 -0.322394 0.013932 -0.372521 -0.106493 -0.255769 1.270348 0.341132 0.121366 -1.011686 0.608096 0.001768 0.486607 0.296900
went -0.801346 -0.325639 -0.074995 -0.478199 -0.624835 0.060499 -0.395179 -0.833517 0.420966 0.047297 0.469920 0.275867 -0.052198 -0.030355 0.599371 -0.281828 0.709685 0.604532 -0.523632 0.613251 0.233212 0.670552 -0.272560 -0.567397 0.144780 -0.744451 0.545446 0.809116 0.857258 0.376444 0.037906 -0.145589 -0.052700 0.664444 -0.526682 -0.717034 0.605735 0.642051 -0.737714 -0.409967 -0.050780 0.502172 0.591507 0.924610 -0.711111 0.320106 0.731635 0.624534 0.496590 0.226240 -0.213468 -0.006066 -0.399920 0.343085 -0.075816 0.707795 0.022693 0.535917 0.581885 0.783606 0.427499 0.450308 -0.941922 -0.407814 -0.115082 0.214797 -0.109824 0.235473 0.281298 -0.046466 -0.028926 -0.976301 -0.126780 -0.260191 0.648148 0.590892 0.112278 -0.434558 -0.282448 0.096388 -0.334255 0.379735 0.625859 -0.569604 0.305586 -0.265571 -0.113633 0.583764 -0.715943 0.056367 0.232744 -0.478810 0.913793 0.503922 0.122334 0.274846 -0.079470 0.054805 0.046220 -0.601159
never 0.139569 0.088324 0.020431 -0.411818 -0.555503 0.158086 -0.188812 0.211394 0.154595 0.687584 -0.127444 -0.227439 -0.161849 -0.420548 1.235399 0.610341 -0.100732 0.241312 0.417089 -0.417931 0.032993 0.421760 -0.919938 0.174903 -0.281384 -0.958074 0.273469 -1.008528 0.496744 0.333321 0.334708 0.287523 -0.218035 -0.528858 0.026741 0.146158 0.300859 0.665697 -0.191043 -0.094969 0.396878 -0.170108 -0.415055 -0.696470 0.341046 0.245277 0.129784 0.093597 -0.036569 -0.016198 0.287106 -0.043247 0.878157 -0.505546 0.726366 0.198599 0.953272 0.260466 -0.156971 0.221304 0.491107 -0.464294 -0.648122 0.299272 -1.223511 0.190479 -0.400644 -0.928960 0.306435 0.488744 0.593572 -0.879258 -0.208417 -0.152604 0.157403 0.279773 0.357239 -0.094439 0.295652 0.878446 0.501615 -0.385239 0.365193 -0.931745 -0.349579 0.135275 0.858551 0.514981 -0.012817 -0.339277 0.334986 -0.938337 0.448344 0.682794 -0.330875 -0.515253 -0.446276 -0.674475 0.492155 0.247695
made -0.443970 -0.180404 0.042360 0.255727 0.151730 0.563694 -0.211898 0.371143 0.246289 0.088632 -0.436532 0.593965 0.007937 -0.386229 -0.179006 0.537235 0.757293 0.281734 0.184604 0.652351 -0.175709 0.143240 -0.573815 -0.722035 0.381110 -1.491719 -0.317558 0.432629 0.508673 -0.270053 -0.361245 -0.201133 -0.456347 0.363061 -0.269222 -0.469785 -0.455657 0.712641 -0.853230 -0.251273 0.212566 -0.326654 -0.294793 -0.157423 0.053562 0.767023 -0.112376 0.729902 0.036845 0.270397 -0.382889 -0.197622 0.546029 0.357136 -0.260920 1.026786 0.409132 -0.450912 0.028105 0.245189 0.443453 0.656958 -0.450096 0.694017 -1.126373 -0.235129 -1.289028 -0.338426 0.251466 0.104607 0.526940 -0.740090 -0.366367 -0.159345 0.094284 -0.002177 0.037907 -0.229915 -0.299178 0.219116 0.532603 0.888602 -0.105980 0.320373 0.047214 -0.172069 -0.253785 0.047386 -0.618995 -0.058104 0.603434 -0.522735 0.506669 -0.044515 0.352911 -0.415006 0.127769 -0.545618 -0.891136 0.181731
always 0.009391 -0.481676 0.705954 -0.517277 -0.294648 0.335718 -0.909432 0.719449 -0.566433 0.879693 0.614394 -0.883679 0.554097 0.096208 -0.113125 0.071861 0.054269 -0.283235 -0.129889 1.037333 0.443992 0.259669 -1.141400 0.386197 0.055223 -0.749514 1.196060 0.876405 0.732005 -0.297656 -0.202658 0.393557 -0.159861 -0.265081 -0.097326 -0.352809 0.197138 0.390268 -0.206598 -0.235887 -0.377380 0.160477 -0.205091 0.064991 0.804291 0.182162 0.255147 -0.543105 -0.018730 0.303066 -0.136960 -0.513241 -0.434801 0.458939 0.285233 -0.844731 0.476899 -0.521688 -0.287710 0.630297 -0.377704 -0.070493 -0.197758 0.507167 -0.517791 -0.076707 -0.987563 -0.040230 0.178678 0.314528 0.448047 -0.987781 -0.378638 -0.179918 0.546660 0.440461 -0.185647 0.097310 0.196666 0.813256 0.475077 -0.815723 -0.748506 -0.519418 -0.301937 0.785243 -0.262465 0.192282 -0.047975 -0.236396 -0.232793 -0.491886 0.223392 0.192227 -0.425078 0.375345 0.115442 0.234054 -0.461251 0.960455
staff -0.448568 0.234389 0.658508 -0.474896 -0.407861 0.197986 -0.372255 -0.126026 -0.723555 0.637739 0.063867 -0.733383 0.009393 -0.096710 0.471070 0.006156 0.199315 0.471374 -0.295855 0.714277 0.756732 0.310014 -0.504501 -0.279939 0.228216 -0.859320 0.247524 0.504920 0.484517 0.684654 -0.832844 0.359011 -0.519918 0.274680 -0.201277 -0.317147 0.301120 -0.090044 -0.494946 -0.396772 -0.545362 0.005747 -0.427389 0.029583 0.190645 -0.713061 -0.828912 -0.313907 -0.591717 0.501779 0.251171 -0.378388 0.250809 -0.666524 0.252867 -0.198608 0.659649 -0.240280 0.469409 0.113483 0.078288 -0.084585 0.221695 -0.683973 -1.000617 -0.066978 -0.675882 -0.166102 0.533353 0.873771 0.446029 -0.711351 -0.589618 -0.151779 0.607479 0.660427 -0.101560 -0.078792 -1.024612 0.480893 0.678447 -0.118541 -0.204769 0.015170 -0.588502 -0.423430 -0.543016 0.606592 0.267292 -0.346529 -0.212950 -0.673789 0.693027 -0.567736 -0.914502 0.429816 0.004872 0.055917 0.049230 0.497953
chicken 0.170354 0.285731 0.741357 -0.281323 0.466683 -0.334956 0.100086 -0.502638 -0.485759 -0.005268 0.238573 -0.074810 -0.531821 -0.333883 0.808246 -0.566970 0.572225 -0.013207 -0.376210 0.708101 0.585408 0.613856 -0.081299 0.107780 0.769351 -0.209807 0.112382 0.069240 0.688449 -0.357071 0.207699 0.652708 0.047556 -0.494935 0.399178 0.051352 -0.812755 0.437795 -0.539981 0.630058 -0.082586 -0.159255 0.594669 0.853716 -0.678238 0.080203 1.193018 0.013484 0.172860 1.200676 0.304564 -0.753352 -0.296172 -0.580296 0.071297 -0.304263 -0.016759 0.432736 1.092085 -0.271313 -0.673251 0.004470 0.468937 0.598658 -1.063443 0.000595 -0.048053 -0.825364 -1.329285 0.509521 0.542529 -0.424623 0.135153 -0.357405 -0.099350 0.716152 -0.437255 0.615330 -0.107943 -0.970327 0.126961 0.306941 0.040154 1.129388 0.392213 0.658184 0.473041 0.096307 -1.110446 -0.457347 0.359589 0.762504 0.299861 0.229360 0.114215 0.660506 0.192220 -0.222946 -0.449460 0.266162
people 0.193390 0.412677 -0.150550 -1.150338 -0.342495 1.343599 0.383427 -0.574601 0.255606 0.077791 0.084725 -0.236630 -0.557263 0.101995 -0.293746 -0.028601 1.005414 0.097725 -0.038084 0.230881 -0.006284 0.326987 -0.880471 0.451465 0.297674 -0.931056 0.088372 0.412705 0.090312 0.237269 -0.018365 0.089402 -0.617179 0.138745 0.302848 -0.411058 -0.403870 -0.118260 -0.338665 0.088043 -0.414745 0.360125 -0.042040 0.147690 0.531708 -0.034830 -0.005032 0.174387 -0.163687 -0.116576 -0.461798 -0.285919 -0.009085 0.551640 0.545454 -1.125132 -0.137769 -0.201694 0.232016 -0.304033 -0.849375 -0.126520 -0.729206 0.121616 -0.341269 0.362043 -0.859418 0.283491 -0.001149 0.828494 0.138425 -0.530104 0.850486 -0.251724 0.109675 -0.122440 0.830161 -0.214660 -0.179569 -0.236498 0.243299 -0.662582 -0.387676 -0.747766 -0.949040 0.058459 -0.697429 0.878384 -0.792331 -0.591428 0.242563 0.027373 0.459948 1.148974 -0.601823 0.191417 -0.533492 -0.063384 0.775325 -0.092722
pretty -0.346047 0.494892 -0.243343 -0.833559 -0.756729 0.684053 0.573221 -0.202644 -0.312050 0.629509 0.409250 -0.431244 -0.388755 -0.231903 0.787508 -0.157364 0.185037 -0.206960 0.579234 0.367846 0.691622 -0.261042 0.052425 -0.024042 -0.073265 0.057731 -0.590765 0.019224 0.902378 0.051980 -0.560579 0.806778 -0.139829 -1.001423 -0.352524 -0.737458 -0.477176 -0.006822 -0.865443 -0.750751 -0.916806 -0.422357 -0.438582 0.106557 0.327240 0.828196 0.415270 -0.000798 0.209484 0.854364 -0.272053 -0.771488 -0.415442 0.220053 0.977832 -0.025169 -0.288375 -0.139016 0.180066 -0.264996 0.775017 0.024992 -0.671955 0.151992 -0.356265 0.392052 -0.599567 -0.193781 -0.164547 0.633363 0.107065 -0.577526 -0.268168 -0.170810 -0.855531 0.547417 0.302565 -0.462317 0.373690 0.257439 0.189821 0.305249 -0.475337 0.064292 0.206189 0.210812 0.891198 -0.292246 -0.580676 -0.598963 0.490218 -0.186850 -0.180898 0.540154 0.413512 0.160069 0.181655 0.180140 0.167708 0.103332
make -0.323941 -0.385886 0.759751 0.043193 0.197059 0.344218 0.027723 0.435301 0.253710 -0.091222 -0.395952 -0.235443 0.164100 0.404965 0.483516 -0.036414 0.627661 0.362645 0.683321 0.103037 0.421548 0.604874 -0.635649 0.332000 0.317768 -0.113901 0.432818 0.360655 0.649111 -0.371960 -0.490923 0.241260 0.130189 0.086880 0.087898 -0.671378 -0.337745 0.461074 -0.850611 -0.274991 -0.446049 0.031784 0.381751 0.062840 -0.004975 0.209848 -0.968874 1.095401 0.566261 0.815078 -0.085685 -0.601437 -0.010968 0.430800 0.585800 -0.494718 0.668727 -1.182241 0.632263 0.838499 -0.032396 -0.283912 -0.440319 0.631467 -0.875065 -0.044497 -1.067602 0.019259 0.445067 0.187642 0.289566 -0.660629 -0.084212 0.136071 0.129849 -0.001671 0.444694 0.296737 0.406793 -0.121663 0.546689 -0.141213 0.049104 0.047927 0.168600 0.158173 -0.196357 0.791674 -0.641443 -0.936225 -0.034844 -0.245417 0.029435 -0.413402 -0.205554 -1.319138 0.203481 0.817260 -0.471886 0.501688
come 0.177194 0.547465 0.053480 -0.425070 0.105026 0.156886 -0.285363 -0.358386 -0.207012 0.815999 0.330056 -0.106031 0.546661 -0.466731 1.295178 -0.545476 0.281528 -0.014744 0.814290 -0.551163 0.230855 0.518728 -0.851060 -0.073885 0.499725 0.118038 0.733347 0.365662 0.353421 0.398180 0.247123 -0.169610 0.715554 -0.019741 0.586550 0.059522 0.058498 0.128394 -0.485752 -0.042639 -0.054452 0.639342 -0.172139 -0.112455 -0.444290 0.277501 -0.153726 0.532617 0.029796 -0.005762 -0.838923 0.392756 0.899604 0.029385 0.876336 -0.168090 0.804508 0.706206 0.189026 0.555675 0.299428 -0.234822 -0.306028 1.166301 -0.005663 0.806962 -0.403897 0.189953 -0.277182 0.175674 0.091920 -0.436046 -0.686919 0.220190 0.110801 0.443154 0.419144 -0.196749 0.674902 -0.605718 0.739529 -0.372429 0.003316 -0.120976 -0.124640 0.422238 0.761785 0.316119 -0.236069 -0.938203 0.095174 -0.398390 -0.098581 0.400582 -0.714738 -0.294418 -0.559108 -0.081729 -0.298226 -0.001354
definitely 0.141699 -0.147899 0.236195 -0.675463 -0.187818 0.074775 0.437830 0.009437 0.357886 1.115698 0.419718 -0.142378 0.097006 0.623439 0.706915 -0.185514 0.544961 0.055387 -0.095349 0.551589 0.976662 0.126421 -0.632890 0.355682 0.324320 -0.646588 0.286057 -0.266276 0.649043 0.143957 -0.525766 -0.012909 0.516381 0.363921 0.779932 0.272941 -0.140791 0.041222 -0.128766 0.278185 0.079674 0.451088 0.180294 -0.221181 -0.502366 0.630166 -0.889763 0.754864 -0.760774 0.177046 -0.072071 -0.689667 0.416549 -0.441487 0.906567 0.521929 0.260912 0.062373 0.354596 0.012249 -0.254607 0.008106 0.232321 -0.220124 0.157385 0.601554 -0.483755 0.577263 -0.168124 0.261828 1.147517 -0.635887 -0.852871 -0.358688 0.124995 -0.028842 0.093151 0.691671 0.050596 -0.151689 0.148846 -0.000488 -0.435804 -0.088347 -0.252549 -0.007367 0.546953 -0.251670 -0.795958 0.020016 0.741647 -0.130373 0.559247 -0.057165 -0.651971 0.010095 -0.602626 1.314896 0.074889 -0.165372
going 0.392936 0.562862 0.726379 -0.359373 0.353749 0.774611 -0.060664 0.236983 0.108465 -0.359453 0.370733 -0.118032 0.039037 0.163121 -0.454937 0.091868 0.940640 0.408719 0.300744 -0.322385 0.216454 -0.041040 -0.465879 -0.362123 -0.345253 -1.122123 0.099630 -0.298633 0.077403 0.180035 0.068737 -0.213005 0.154196 -0.384982 0.373593 -1.439680 0.473814 0.380257 0.150496 0.279182 0.672569 0.223019 0.412321 0.314738 -0.032950 0.826482 -0.772121 0.412678 -0.007114 1.064101 0.332209 -0.468753 0.664857 0.072231 0.245513 -0.110661 0.674891 0.214562 0.340198 0.177348 0.423999 -0.265081 -0.238654 0.454683 -0.412023 0.097164 0.057178 0.548470 -0.211686 1.460376 0.099270 -0.770475 -0.189954 -0.286275 -0.027747 0.327984 0.216350 0.223150 0.630824 -0.304500 0.318114 -0.287428 0.000767 0.101552 -0.312892 0.100449 0.392486 -0.010565 -0.355045 -0.034970 0.176233 -0.457435 0.812435 -0.298655 -0.908643 -0.301298 -0.266811 0.158740 0.297653 -0.646415
amazing 0.109369 0.490585 0.088066 0.755023 0.369392 0.453024 -0.204054 0.213900 -0.258309 1.031671 -0.136904 0.359681 0.539484 -0.107049 0.224760 -0.038272 0.785568 -0.322022 -0.208575 -0.123300 0.875847 1.314574 0.276007 0.051641 0.117264 -0.282581 0.996808 1.264790 0.806299 0.405014 -0.448582 0.442609 -0.408622 -0.032474 0.160299 -0.641040 -0.040345 0.462372 -0.984206 0.167177 0.087322 0.076448 -0.343593 0.094400 -0.029375 0.265589 -0.260674 0.098496 -0.098752 0.117312 0.479175 0.196483 0.675271 -0.759411 0.376765 -0.076207 0.199854 -0.074224 -0.242940 0.403157 -0.095097 -0.210080 0.202426 0.164837 -0.312884 -0.347118 -0.343904 -0.574643 0.365832 0.211427 1.118788 0.134963 -0.785693 0.148331 -0.298988 0.406288 -0.320898 0.853396 0.005769 -0.788689 0.457072 -0.198468 -0.081694 0.373383 -0.009901 -0.239591 0.667751 0.642513 -0.274438 -0.079403 0.262400 0.127665 0.282211 0.131831 0.008756 0.038911 0.376873 0.668066 -0.502299 0.033450
menu 0.162083 0.576701 -0.222302 -0.781715 0.579772 0.300894 0.278438 -0.040423 0.096577 0.638172 -0.473722 -0.252040 0.004434 -1.007569 0.317706 -0.059434 0.800906 0.192221 -0.510671 1.636271 0.842768 0.821563 0.053155 -0.314500 0.511854 0.108971 0.457614 0.323321 0.351745 -0.051612 -0.589236 -0.141918 -0.577034 0.364636 -0.064441 -0.103274 -0.711016 0.222930 0.068914 0.255074 -1.184831 -0.051903 -0.476429 -0.350283 0.174743 0.348691 0.327747 0.285884 -0.372345 -0.627046 -0.485352 -0.707190 -0.064129 0.579818 0.472932 -0.121100 -0.176026 0.531157 0.194383 0.127615 0.043090 -0.327070 -1.068127 -0.121709 -0.808739 0.414923 -1.132930 0.187994 0.086563 0.027432 0.309816 -0.421725 -0.860735 -0.248745 -0.295131 -0.422121 0.795423 0.450654 0.231624 -0.514182 0.042007 0.042490 -0.086039 0.499810 0.572767 -0.300366 -0.035704 -0.463851 -0.423742 0.280723 0.283587 -0.136094 -0.176190 0.690150 -0.256855 0.002531 0.355476 0.410115 -0.556482 -0.305415
delicious -0.032134 0.271373 0.750520 -0.176202 0.025878 0.009473 -0.386377 -0.176100 0.500812 1.229583 0.069582 0.186899 0.478496 -0.595225 -0.039488 -0.338031 0.281759 -0.566690 0.444451 0.903277 0.445332 1.192861 -0.584311 0.781520 0.581689 -0.049634 -0.109096 0.094018 0.111162 0.006769 0.237155 0.942368 0.310736 0.422463 0.296453 -0.282061 0.086986 0.529919 -0.962597 0.567843 0.268003 0.325700 -0.332744 0.248399 -0.483022 0.484024 0.372492 -0.260466 0.302745 0.231135 0.306890 -0.341937 -0.197269 0.120540 0.143848 0.133605 -0.418957 0.026448 -0.047699 0.422761 0.020971 0.001494 0.479372 -0.067635 -0.515228 0.270344 -0.306151 0.326214 0.376617 0.160288 0.675597 -1.051220 -1.059251 0.488054 -0.307854 0.615927 0.169154 0.666764 -0.093359 0.232207 -0.141760 0.020704 -0.555705 0.618018 0.151931 0.384992 0.501717 0.558082 -0.661870 0.009463 0.233872 -0.254014 0.005219 0.569310 0.363552 0.529226 -0.538201 0.632684 -0.237891 0.216608
two -0.293645 0.139817 -0.564741 -0.446984 0.153876 0.908663 0.372516 0.099345 -0.748359 0.327690 0.150645 0.599995 0.217744 -0.222312 0.436332 -0.143616 0.421140 0.036711 0.323942 0.063187 -0.363188 0.224732 -0.608394 0.052587 0.107761 -0.663366 -0.015222 0.591510 0.566424 0.549737 -0.709213 -0.328724 -0.167831 0.399542 0.337129 0.139626 -0.458228 0.943752 0.038104 0.565043 0.008834 0.027382 0.485636 0.978596 -0.303542 0.211986 0.590656 0.819192 -0.335181 0.606260 -0.962513 0.574927 0.093940 0.434653 0.841798 -0.082507 0.051589 0.214335 0.704316 -0.206455 0.177266 -0.316488 -0.010617 0.265615 -0.564533 -0.087794 -0.375816 -0.475327 -0.085451 0.815218 0.571020 -0.543800 0.115404 -0.825277 -0.443218 -0.949665 -0.245339 0.075139 0.082838 -0.223757 0.255367 -0.699612 -0.591576 0.148800 -0.044914 0.004892 -0.118306 0.648435 0.151536 -0.274659 1.011465 -0.157290 -0.202560 1.314965 0.225486 0.130862 1.052635 0.351335 0.472483 0.011729
better -0.470944 0.644764 -0.346665 -0.290836 0.570163 0.294419 -0.041280 -0.631123 -0.337190 0.682823 0.307812 0.388137 0.045868 0.973667 -0.012544 0.391977 0.412517 -0.229389 0.326198 -0.025410 0.238174 0.843456 -0.167832 -0.574787 0.347016 -0.840138 0.351820 -0.186039 0.609927 -0.104022 -0.825801 0.565389 -0.115674 -0.122722 -0.260013 -0.186889 -0.282826 0.094528 -0.591993 0.231182 -0.010280 -0.416221 0.102065 -0.254812 -0.325915 -0.568893 -0.133145 1.133808 0.870293 0.661003 -0.436486 -0.423877 0.109865 -0.174352 0.242530 -0.068401 -0.477082 0.594931 -0.107123 -0.293532 -0.615484 -0.622032 0.157526 -0.850669 -1.122325 -0.275778 -0.086644 -0.090728 -1.130189 0.860242 -0.264053 -0.415436 -0.203714 0.155872 0.019475 -0.137840 0.104468 0.216348 0.339368 0.778374 0.935311 0.009268 -0.297254 0.068787 0.433653 -0.028858 0.562836 0.171079 -0.802418 -0.763582 0.122435 0.094461 0.624428 -0.407034 -0.213134 -0.233321 -0.025680 0.475119 0.210641 -0.299181
know -0.158928 0.921923 -0.314375 -0.283927 -0.051579 0.584316 -0.549414 0.029040 0.220833 0.337036 -0.319557 -0.842888 -0.027988 0.570361 0.881754 0.711351 0.978842 0.284753 1.229686 -0.480755 0.237866 0.180023 0.373073 -0.484566 -0.276144 -0.938027 1.042438 -0.004854 0.501562 -0.613638 0.215976 -0.090822 -0.329402 1.119712 -0.313834 -1.032342 -0.257889 -0.204274 -0.047371 -0.802269 -0.437782 0.075467 0.073867 -0.818395 -0.154680 0.038476 0.001805 0.395480 -0.254801 0.036060 0.298058 -0.390228 0.361204 -0.044113 1.224930 -1.013244 0.416416 -0.084872 -0.053281 -0.427462 0.216008 -0.518508 -0.477111 0.234878 0.031829 -0.268705 0.146908 0.227042 -0.609590 0.909319 -0.173355 -0.213848 -0.132964 -0.530762 0.422473 -0.603847 0.463316 -0.225557 -0.073380 -0.364706 -0.241131 -0.198133 0.202446 0.065848 0.257747 0.144390 -0.487244 0.625352 -0.283988 -0.301136 0.171288 0.277333 0.487404 0.591282 -0.559221 -0.125622 -0.172428 -0.671887 -0.003800 0.391884
way -0.173674 0.382719 -0.032342 -0.300042 -0.008488 0.407987 -0.367048 -0.257331 0.546428 0.152352 0.112948 0.679075 -0.462185 0.346316 0.954072 0.064193 1.148977 0.265169 0.336984 -0.265646 -0.488662 0.274303 -0.181075 -0.430890 0.601529 -0.684692 0.242000 0.587185 0.675505 0.366586 -0.551630 -0.262267 0.212639 -0.495079 -0.633082 -0.292273 0.506089 -0.307267 -0.620809 -0.326294 -0.417988 -0.392036 0.189772 -0.272898 0.185274 -0.171742 -0.098895 0.213182 0.463085 0.346100 -0.028906 -0.399767 0.098817 -0.365780 0.477670 -0.641463 0.875481 -0.223268 -0.413532 0.142776 0.133848 -0.791105 -0.572135 0.099852 -0.445633 0.048963 -0.140684 -0.608759 -0.893425 -0.173555 -0.171423 -0.541268 0.367146 -0.712720 -0.293162 0.709641 0.829703 -0.107878 0.421148 -0.848260 0.055497 -0.049495 -0.858585 -0.577366 0.134074 -0.171139 -0.167209 -0.126622 -0.372297 -0.292352 1.213338 -0.438533 0.357681 -0.030572 -0.702319 0.446669 -0.685307 0.162829 -0.070522 -0.564009
ever 0.342542 -0.689334 -0.621835 -0.420281 -0.362913 0.344222 0.025093 -0.013457 0.351922 -0.330962 -0.463245 0.103849 0.046093 -0.337727 0.615290 0.452263 0.095524 -0.165757 0.406287 0.563299 0.696683 0.759086 -0.812145 0.388036 0.012820 -1.097991 1.242122 -0.644081 0.775925 0.120071 -0.481224 0.492973 0.382714 -0.293733 0.678020 -0.747320 0.487023 0.773216 -0.372509 0.413267 0.499784 -0.489204 -0.228710 0.265225 0.101130 0.677874 0.288602 0.116736 -0.043292 -0.252180 0.181049 -0.723915 0.449126 -0.335279 0.276979 -0.309375 -0.227986 -0.090844 -0.162128 -0.330749 0.026424 0.002887 -0.253379 0.074128 -0.461929 0.133174 -0.740247 -0.792539 0.137813 -0.253176 0.671673 -0.169029 -0.489658 -0.557515 -0.341337 0.091770 0.356609 0.442914 0.766313 0.581432 -0.089798 0.171038 -0.117792 0.198281 0.109723 -0.200894 0.385498 0.280395 -0.230691 -0.163207 0.360049 -0.320121 -0.005811 0.602044 -0.621275 -1.078760 -0.966796 -0.439222 0.286811 -0.445834
bar 0.037953 0.746429 0.323802 -0.240522 -0.607050 0.194992 0.340265 -0.493545 -0.214574 0.286088 -0.785297 0.141139 0.562789 -0.469832 -0.373117 -0.415805 0.961606 1.220964 0.621224 0.759889 -0.016181 0.042772 0.314470 -0.167049 -0.091978 -0.508841 -0.481430 0.919234 0.697603 -0.660384 0.149137 0.550129 -0.174238 -0.875338 0.211161 -0.969212 0.569517 0.107375 -0.491370 0.727225 -0.195027 0.479112 -0.312444 -0.952494 0.349567 -0.244339 -0.365538 -0.423054 -0.370621 1.444578 -0.504310 -0.502002 0.624072 0.571939 0.417815 -0.094066 0.097119 -0.060223 -0.144399 0.617047 0.452557 0.303765 -0.436188 -1.182784 -0.559101 0.863698 0.371740 0.396008 0.533713 0.168363 0.148726 -0.230085 0.045611 0.174964 0.721102 0.434623 0.350723 -0.725701 -0.003752 -0.479541 0.728904 -0.517403 -0.226808 -0.095700 -0.243089 -0.704473 -0.818041 0.549215 -0.256795 0.067768 0.918457 0.409842 0.243927 0.511266 0.635173 -0.000673 0.105199 0.022432 0.421240 0.442321
minutes 0.627524 0.213674 1.219568 -0.761779 0.335831 -0.036575 0.036182 -0.178060 -0.028901 0.388161 -0.160114 0.274081 0.311661 -0.418460 0.841354 0.073505 0.474222 0.406717 0.470737 -0.249504 -0.151572 0.365926 0.513411 -0.203185 -0.445578 -0.948742 -0.186350 0.207199 0.844997 0.544393 0.068044 0.170365 -0.238069 -0.516602 0.173556 0.151306 -0.311754 0.491409 0.384397 -0.498398 -0.483213 0.320692 0.024737 0.057510 0.194474 0.847843 0.381300 0.250415 0.431621 -0.597488 -0.454346 -0.023891 0.529592 0.271931 0.741919 0.619162 0.698124 0.937667 1.316831 0.200214 0.691479 -0.591737 0.052821 -0.274935 -0.263934 0.877479 0.130389 0.321153 -0.305966 -0.664529 -0.171036 -0.306477 0.331029 0.367026 0.567419 0.224950 0.435083 -0.142208 0.737273 0.270009 0.706308 -0.493304 -0.641874 0.230811 -0.236461 0.108394 -0.372286 1.017167 -0.161531 -0.914253 0.297696 -0.509382 0.834109 0.358515 0.189163 -0.588797 0.141230 -1.212303 0.354570 0.537332
think -1.008388 0.192577 -0.139871 -0.098045 0.265698 0.381579 0.114601 -0.237064 -0.217328 -0.242014 -0.260718 -0.287360 0.126782 0.380401 0.422577 0.235464 0.748249 0.367099 0.605494 -0.138925 -0.422806 0.266314 -0.457075 -0.498546 0.694187 -0.969823 0.560721 0.141472 -0.141168 0.175603 0.004505 0.515005 -0.709622 0.040410 -0.086902 -0.095874 -0.441155 0.359919 -1.042472 0.057922 0.174808 -0.463855 0.208512 -1.179119 -0.304923 0.307787 0.068668 0.370523 -0.398354 0.152321 -0.737685 -0.455882 -0.067598 -0.183488 0.857029 0.170235 -0.256569 -0.067618 0.180174 -0.431469 0.433457 0.022715 -0.502454 -0.242691 -0.540158 0.142209 -0.352320 -0.032260 -0.025659 0.689713 -0.381947 -0.388398 -0.380592 -0.565196 -0.396665 0.766474 0.153060 -0.191069 0.023429 0.444093 0.336211 0.271080 0.064137 0.797716 -0.222876 -0.541602 0.062622 0.827109 -0.244953 -0.290765 0.410774 0.597305 0.379936 0.219975 -0.559047 -0.084831 -0.758844 -0.084497 -0.080181 -0.580392
everything -0.333584 0.558387 0.160690 0.197076 0.254772 0.409605 -0.169455 -0.366436 0.334919 0.901059 -0.247116 0.301517 0.345376 -0.531098 0.135879 0.686092 -0.095004 0.113288 0.110492 0.233628 0.844614 1.557784 -0.170562 -0.352646 0.811081 -0.315402 0.280112 -0.107645 -0.072864 -0.572057 -0.396767 0.267180 -0.031593 -0.019914 -0.531363 -0.236887 -0.301667 -0.062755 -0.174494 -0.059049 -0.380735 0.491393 -0.654946 0.020230 0.086189 0.719297 -0.054309 0.076123 -0.059358 0.468692 -0.085536 -0.370825 0.664425 -0.183835 -0.253141 0.040388 -0.489275 0.666743 -0.013340 0.238893 0.227122 0.311876 -0.102300 0.124707 -1.325317 0.664174 -0.986181 -0.575728 -0.461521 -0.131752 1.026653 -0.367664 -0.865854 0.295948 0.209952 -0.006749 0.298388 0.152511 0.170015 -0.228032 0.311493 0.277951 -0.622198 -0.333658 0.305837 0.322254 0.006708 -0.283715 -0.454558 0.186271 -0.195390 -0.455180 0.924570 0.431582 0.300055 0.302427 -0.103430 0.386007 -1.080373 0.284100
experience 0.060820 -0.178688 -0.576967 -0.330526 -0.300383 0.008170 0.857612 0.062770 0.002494 0.270561 -0.080120 0.076794 0.096062 -0.607804 -0.030097 0.183401 -0.186391 -0.025105 0.065718 -0.146095 -0.153256 -0.187207 0.384353 0.491145 0.866442 -0.687199 0.681103 0.108060 0.853550 -0.165542 -0.461813 -0.101136 -0.341057 0.017469 0.664157 -0.529813 0.610308 -0.489119 -0.848478 -0.207554 -0.264348 -0.641713 0.029052 0.222941 -1.396325 0.279982 -0.060236 -0.177989 0.443763 0.554157 -0.453049 -0.101075 0.906368 -0.574402 0.413982 -0.265458 0.501952 -0.306935 -0.471034 0.667201 -0.102739 -0.106697 0.058381 0.414207 -0.683120 0.403103 -1.148241 -0.490542 0.223526 0.973257 0.053793 -0.975958 -0.965683 0.055098 0.672227 0.610921 -0.422518 -0.107438 -0.152283 0.392350 0.526916 0.457051 -0.231122 -0.527786 0.403042 -0.628778 0.203763 -0.034218 0.016877 -0.678272 -0.337032 -0.551240 0.530910 0.312148 -0.418168 -0.350010 -0.035762 -0.172761 0.214916 -0.025987
give -0.106123 0.191354 -0.067385 -0.176251 -0.198670 1.231786 0.381870 -0.461425 -0.260552 -0.021562 -0.043078 0.674184 0.704478 0.084290 0.786312 0.063260 0.292939 0.340455 0.212080 -0.631433 -0.476651 0.196793 -0.167869 0.348497 1.311506 -0.344118 0.239181 -0.062695 0.410027 -0.225488 -0.372460 0.160576 0.192672 -0.730078 0.577481 0.104065 0.271445 -0.394016 -0.623592 -0.143201 -0.758153 -0.639561 0.425315 0.272531 -0.308628 -0.016849 0.041587 -0.418490 -0.325704 -0.225313 -0.230578 -0.598420 0.089794 0.064774 0.484048 -0.828954 0.039191 -0.706879 0.925688 0.344326 0.304755 -0.688262 0.455798 0.860879 0.035664 0.766771 0.114946 0.155171 -0.138112 0.041330 0.253059 -0.435940 0.067730 -0.136370 -0.030982 0.093060 0.772089 0.659009 0.471434 0.271732 -0.410852 0.052331 0.051805 0.319416 0.460522 -0.311170 0.300561 0.804691 0.651319 0.307381 -0.113475 -0.355404 1.262792 -0.077214 -0.515885 0.054069 -0.468250 0.272713 0.540970 0.200311
right -0.051333 -0.257588 0.240335 -0.062455 0.475792 0.512582 -0.000983 0.158081 0.177646 0.948562 -0.155668 -0.397678 0.133264 0.285337 0.042518 0.135175 0.306308 -0.497459 0.169884 0.136470 -0.486568 0.578175 -0.149342 0.026544 -0.241058 -1.067039 -0.470239 -0.045866 1.512324 -0.408566 -0.068693 0.189183 -0.282874 0.430977 0.286585 -0.991448 -0.660680 -0.268903 -0.552931 -0.376601 -0.538444 -0.299157 -0.498238 -0.077885 0.695028 0.187351 0.291598 0.254263 0.311614 0.360136 -0.428695 -0.619650 0.111681 0.076468 0.498472 -0.393796 -0.319691 -0.082731 0.316125 0.721487 0.517119 0.279590 0.631031 0.570999 0.457854 0.816393 -0.397524 -0.023467 -0.368953 0.059102 1.470911 -0.724821 0.494466 -0.998829 1.017867 -0.466462 -0.116995 -0.287634 0.404465 0.124664 -0.147926 -0.317246 -0.599443 -0.541831 0.281180 -0.151296 -0.172101 0.610425 -0.630070 -0.076415 0.124474 0.071323 0.235906 0.201320 0.054369 -0.298385 -0.208193 -0.660705 0.706863 0.202821
day -0.427260 -0.436196 0.409151 0.108937 0.509463 0.435362 -0.123167 0.277047 -0.212009 -0.399854 0.367820 0.092194 0.571373 0.468725 0.152974 0.691432 1.106124 -0.670992 -0.000529 0.656190 -0.686110 0.032922 0.423543 -0.720426 0.908142 -0.517173 0.489687 0.491071 0.162881 0.284201 -0.315807 0.117520 -0.433557 0.090466 -0.297795 -0.487010 0.052074 0.491253 -0.343560 -0.155733 0.930969 0.392619 0.765092 0.049035 0.203232 0.442117 -0.143943 0.237150 -0.474036 0.972103 -0.444925 -0.696521 0.552673 0.386900 -0.222315 -0.177575 0.286097 0.474338 0.042647 0.565818 0.173512 -0.545466 -0.199046 0.097521 -0.211855 0.942952 -0.295312 -0.313985 0.518593 0.851383 0.075303 -0.164119 -0.167256 -0.220419 0.420716 0.108254 -0.104888 0.011841 0.028677 -0.307026 0.233619 -0.146874 -0.546773 -0.073976 -0.078106 -0.582628 -0.488409 1.112422 0.139205 -0.160941 -0.060449 -0.228659 1.053480 0.447065 -0.224323 -0.022070 -0.497545 -0.059191 0.118539 -0.860394
new -0.524310 0.242838 0.086441 -0.734079 0.286385 0.620906 0.082678 0.322780 -0.576409 -0.097269 -0.000511 -0.411430 0.068536 0.063877 0.488004 1.195978 -0.063040 0.063777 -0.177350 0.101153 0.186913 -0.554908 0.353737 -0.004135 -0.169966 -0.589186 0.439769 0.489394 0.186449 -0.558282 -0.219132 0.268963 -0.078446 0.447572 -0.066160 0.240285 0.231268 -0.192340 0.318376 -0.362550 -0.009369 -0.299462 -0.178325 0.485063 0.183217 0.490495 0.500772 0.114916 0.111369 0.401230 -0.224142 -0.271877 -0.053276 0.027186 -0.025011 0.127647 -0.392037 0.310751 0.439305 0.937377 0.964819 0.087421 -0.198723 0.258511 -0.060931 0.383343 0.080663 -0.561891 0.399502 1.002432 0.536217 -0.378263 0.104210 -1.053712 0.298339 -0.877582 0.102053 -0.366322 0.343079 0.426098 0.695453 0.100203 0.578392 -0.957357 0.421827 -0.298167 -0.747701 -0.492778 -0.285745 -0.522431 0.633203 0.059918 1.341027 -0.162011 -0.176786 -0.225581 -1.084982 0.730103 -0.359059 -0.324725
said -0.240767 0.309741 -0.319413 -0.404563 0.027668 0.262158 -0.338941 -0.732002 -0.395013 0.412436 -0.215218 -0.446264 0.335481 0.704809 1.322321 0.153784 0.213847 0.255521 0.238841 0.281878 -0.120233 -0.088498 0.010556 -0.464132 0.635839 -0.528322 -0.324176 0.114998 0.216324 0.119252 0.308955 -0.305177 -0.971533 0.549503 -0.276749 -0.229097 -0.590813 0.098926 -0.377750 -0.346640 0.346562 0.564034 0.362042 0.211557 -0.714224 -0.615758 -0.098479 0.664717 -0.185975 -0.222343 0.445589 -0.076111 0.546758 0.241102 0.078492 0.409936 0.121348 1.307942 0.219925 0.468166 0.400899 -0.268570 -0.525293 0.119061 -1.149858 0.408613 -0.568552 0.002535 -0.407014 0.522967 0.724463 -0.440896 0.425893 -0.693223 -0.016722 0.072672 0.294674 -0.297393 0.058054 -0.422597 0.843245 0.695082 0.387281 -0.247346 -0.072283 -0.521214 -0.546934 0.547017 -0.398844 -0.535050 -0.159315 -0.378996 1.103067 0.275776 -0.248867 -0.481921 -0.197852 -0.805209 0.564425 -0.082112
say 0.151921 0.785271 -0.125692 -0.391324 0.710454 0.005627 -0.089204 0.247906 -0.571716 -0.334580 -0.770890 -0.218406 0.009211 0.180641 0.332441 -0.371552 0.489852 0.040995 0.701345 -0.134273 0.289404 1.093196 -0.365117 0.032067 0.546738 -0.421592 0.302233 -0.495177 0.379847 -0.311782 -0.415793 -0.176456 -0.048525 -0.078463 0.216704 -0.087994 -0.082953 -0.114576 0.236978 -0.147980 0.001144 -0.256702 -0.014686 -0.078259 -0.190316 -0.003171 0.317720 -0.370461 0.046768 -0.030910 -0.112652 -0.344960 1.026740 0.666434 0.424675 -0.204850 -0.494114 0.864733 0.238909 -0.476505 -0.283624 0.275373 -0.656707 -0.297535 -0.895059 -0.399394 -0.436112 -0.268986 -0.042023 0.373335 0.538835 -0.716131 -0.434247 -0.245266 1.344322 0.160235 0.465001 -0.017121 -0.020782 -0.158654 -0.428664 0.394211 -0.654899 -0.163364 0.366097 0.125751 0.303502 0.885870 -0.248330 0.101195 0.625158 -0.392886 0.437953 0.844280 -0.745869 -0.522259 -0.297228 -0.054000 0.230609 -0.541088
small -0.122413 0.320048 0.305615 -0.342585 -0.159317 -0.185096 -0.765920 -1.087221 -0.439390 0.291431 -0.549618 -0.277169 0.552060 0.010188 0.441314 -0.086662 0.076775 0.335435 0.387729 -0.333815 0.709583 0.575500 -0.401428 0.656853 0.289242 -0.894442 -0.058155 0.417116 0.192531 0.331907 0.259441 -0.091952 -0.600842 -0.178905 0.796316 -0.858089 -0.212161 0.152652 -0.414661 0.296510 -0.237977 0.395454 0.658393 -0.236633 0.277143 1.048071 -0.166064 0.320635 0.089633 0.315342 -0.255289 -1.189014 -0.331797 0.422596 0.393342 -0.436894 -0.756339 0.015550 0.648604 0.720394 -0.146813 0.286457 -0.289702 -0.281157 0.254798 0.442950 -0.237766 0.444385 0.434159 0.486784 0.562044 -0.726192 0.708272 0.378511 -0.364850 -0.540819 0.226261 0.295968 0.135281 -0.701328 0.222784 -0.368234 0.239727 0.294123 0.288349 0.673722 -0.404855 -0.393785 -0.311022 0.576184 0.229734 0.620345 0.663209 -0.033436 -0.129960 0.206774 0.734815 0.782081 0.050382 -0.203760
wait 0.368810 0.562805 0.782688 -0.089220 0.059849 0.260903 -0.279388 0.162591 -0.482388 0.664127 -0.578751 -0.408585 -0.052743 0.399480 0.442403 -0.286073 0.685816 0.020944 0.839691 0.601194 -0.031990 0.569359 0.250419 -0.479727 0.228190 -0.052289 0.462704 0.129402 1.128204 0.610699 -0.255650 0.724734 -0.184951 0.176515 -0.101010 0.006468 -0.054738 0.663401 -0.139749 -0.798880 0.154722 0.771900 0.100646 -0.083824 -0.036930 0.052282 0.030498 -0.470631 0.134767 -0.085062 0.042039 -0.192472 0.502582 0.227012 0.350268 0.550450 0.226668 0.268527 0.972607 0.013020 0.481135 0.098944 -0.454395 0.521754 -0.319143 0.573444 -0.453891 0.073770 0.387398 0.028707 0.751337 -0.187221 -0.226709 0.399335 1.900477 0.305632 0.490716 -0.003104 0.311516 0.248078 0.693189 -0.107031 -0.521265 0.348580 -0.461569 0.552659 -1.047044 0.414751 0.031888 -0.857898 0.006390 -0.307045 0.858990 -0.291154 -0.108319 -0.303819 0.211871 -0.349947 -0.044746 0.035710
still 0.371706 0.330847 -0.569221 0.010422 0.111189 -0.383789 -0.206453 -0.274595 -0.077803 0.455951 0.360498 0.337727 0.718109 0.066697 0.612777 0.191332 0.461650 0.126984 0.296078 0.329323 0.715422 -0.121546 -0.651135 -0.267572 0.358751 -0.248853 0.402863 0.938519 -0.283547 0.631298 -0.029813 0.217592 -0.088506 -0.412497 0.091509 -0.668038 -0.161593 0.384840 -0.682840 -0.186146 0.264166 -0.445087 0.440070 0.028032 -0.346796 0.660897 0.173534 0.380340 -0.418556 0.045866 -0.073056 0.012358 0.731672 0.143865 0.712290 -0.190660 0.561607 0.341210 0.257861 0.199808 0.648354 -0.237458 0.064812 -0.525682 -0.318894 -0.283366 -0.107247 0.426929 -0.644046 1.156293 0.326912 -0.234731 0.617204 0.281619 0.265655 -0.032326 -0.204755 0.160471 -0.319690 0.026849 0.472907 -0.362375 0.019903 -0.161178 0.581969 0.912384 0.046449 0.383911 -0.106334 -0.710856 0.742564 -0.263669 1.041503 0.284193 0.056467 0.218890 0.527165 -0.058044 -0.004938 0.037153
want -0.314533 -0.177618 0.072343 -0.216466 -0.450577 0.441752 1.016518 -0.270938 0.240079 0.144592 0.533428 -0.939467 0.646044 0.930257 0.506825 0.139450 -0.118265 0.715931 0.338926 0.437911 0.264935 0.803231 -0.575600 0.099494 0.546322 -0.828847 1.050401 -0.319683 0.203809 0.108376 0.182066 -0.473438 -0.328774 -0.098754 -0.198245 -0.625768 -0.208022 -0.121190 -0.436283 0.200352 0.018045 -0.172974 -0.222282 -0.320071 -0.040379 0.094056 -0.009001 0.007217 -0.112688 0.397852 -0.379037 -0.531626 -0.039629 -0.058635 0.814263 -0.550432 0.351233 -0.828903 -0.104505 0.456744 -0.243905 0.381217 -0.590272 -0.080357 -0.961326 0.245180 -0.128237 0.595405 -0.178912 0.554665 0.614057 -0.162362 -0.190274 0.327727 0.492225 0.131656 0.741551 0.305023 0.927140 -0.124544 0.244622 0.341728 -0.461752 -0.153870 -0.122343 -0.118696 0.618794 0.131081 -0.277656 -0.480845 0.138282 0.211650 0.486080 0.936897 -0.240623 -0.787160 0.031461 -0.278431 -0.086354 0.364354
recommend -1.055530 -0.627901 0.107600 -0.650855 -0.218287 0.769976 -0.241810 0.305921 0.442466 0.818537 0.371225 -0.026405 0.390165 -0.337607 0.348840 -0.360271 0.401135 0.069559 0.224429 -0.238565 0.353125 -0.211207 -0.741006 0.429215 -0.133660 -0.336098 0.245136 -0.275333 0.304917 -0.353382 -1.242064 0.293128 0.306352 0.229720 -0.016809 0.167205 -0.243893 -0.024260 0.868556 0.326415 0.055582 0.463413 -0.371890 -0.874079 -0.290416 0.453862 -0.117572 0.457108 -0.285488 0.105078 -0.293560 -0.339498 0.611054 -0.565062 0.455892 0.049616 0.015117 -0.179996 0.104623 0.286903 -0.263127 0.001967 0.396149 0.635104 -0.104314 1.173475 -0.372066 0.496862 0.503635 0.872937 0.077010 -0.572036 -0.252805 0.203524 0.171857 0.684621 0.396019 0.430477 -0.227698 0.497207 0.114682 0.097291 -0.618180 -0.226330 -0.055336 -0.005674 0.668815 0.597893 -0.455143 0.408394 0.116000 -0.472896 0.887929 0.426742 0.221349 0.223993 -1.030485 0.888005 0.448115 0.249259
work -0.376373 -0.058223 0.277525 -0.066505 0.111697 0.927322 0.371389 -0.088266 0.577390 -0.582805 0.845252 -0.071572 0.034459 0.587896 0.332382 0.202828 0.485727 0.624178 0.214593 -0.362739 0.196935 0.604736 -1.130044 -0.289421 -0.239720 -0.808482 0.591633 0.770258 0.569914 -0.755969 -0.125731 -0.137578 -0.208398 0.706317 -0.172528 -0.668158 0.154653 0.664445 0.634832 -0.403621 -0.317295 0.722188 0.582083 0.694479 -0.048415 -0.237605 -0.669318 0.098067 -0.305221 -0.418303 -0.031801 -0.036856 0.147824 -0.109068 1.234931 -0.104983 0.227519 -0.027727 -0.529932 0.491207 0.576436 0.240302 -0.935256 0.518063 0.128915 -0.324685 -0.701936 -0.022433 0.195718 0.459290 0.490689 -0.157274 -0.374267 -1.069257 0.342069 0.026352 -0.433597 -0.594650 -0.129331 -0.401456 -0.172834 -0.547149 -0.399442 -0.232070 -0.537068 0.105173 0.391292 -0.007673 -0.088864 -0.949969 0.214851 -0.276781 0.476496 0.694290 0.154146 -0.381289 0.265793 0.026512 -0.381642 -0.039057
fresh -0.325368 0.349083 0.311136 -0.060586 -0.182279 0.152267 -0.711827 -0.138897 -0.264706 0.772005 0.001901 -0.160628 0.254258 0.147638 0.220449 -0.606289 0.053855 0.054488 0.274152 0.696753 0.844923 1.186750 -0.403338 0.144687 -0.060465 -0.878084 0.395922 0.303901 0.748372 -0.356972 -0.486157 0.659837 -0.302184 0.055947 -0.145397 0.027851 -0.459123 0.775668 -0.770019 0.238678 0.210645 -0.046919 -0.618096 0.174189 0.210288 0.466897 0.010668 0.286944 -0.747368 0.763767 -0.221968 -0.773350 -0.476211 0.211133 -0.194590 0.247935 -0.588816 0.668429 -0.370664 0.388065 0.734944 0.077282 -0.086971 0.107928 0.059532 -0.297307 -0.310573 -0.333678 -0.511617 0.486974 0.454124 0.135153 -1.289364 0.010505 0.086894 -0.319232 -0.427907 0.594956 0.549059 0.399077 0.021950 0.083396 -0.047679 0.646519 -0.874273 0.526634 0.181007 0.794856 0.452621 0.186209 0.358503 0.273795 0.127898 0.569844 0.289802 0.280489 0.265277 0.210336 -1.066722 0.652803
see 0.339400 0.420073 -0.122745 -0.724215 -0.256613 0.399308 0.194644 -0.038621 0.281793 0.341164 -0.608754 0.095927 0.337262 -0.254337 0.144113 0.710250 0.591532 1.002862 -0.288367 0.206238 0.197410 0.411130 -0.271902 -0.042155 0.543712 -0.558644 0.597407 -0.395972 0.837731 0.760293 0.303081 -0.168280 -0.164766 -0.684660 -0.142791 -0.275048 -0.417603 0.110238 -0.725511 -0.112960 0.434466 -0.285282 -0.109767 -0.168567 0.050455 0.701198 0.052300 0.324640 -0.428782 -0.037885 0.320278 -0.031884 0.284945 -0.276126 0.424203 -0.423418 0.384970 0.151977 -0.273739 0.585855 0.264211 0.067241 -0.408268 -0.589803 -0.394802 0.653096 -0.378029 0.437706 -0.457109 0.692324 0.180011 0.723145 0.249789 -0.390795 1.473874 0.021002 0.608952 -0.473500 -0.073974 -0.011243 0.617706 -0.523604 1.311726 -0.168377 -0.656456 -0.157196 -0.284327 0.301330 0.732604 -0.255061 0.130787 0.055146 0.738607 0.126150 0.016507 -0.911383 -0.153367 -0.099385 -0.199954 0.069759
took 0.277735 -0.023724 0.614864 -0.106946 0.078251 0.664974 0.038143 0.401268 -0.514383 -0.148224 0.003927 -0.429093 0.048709 -0.247671 1.002060 0.650941 0.148422 0.674107 -0.239306 -0.420372 -0.022953 0.453706 0.459639 -0.319824 0.028519 -0.417099 0.431324 0.933014 0.106585 0.718680 -0.020578 0.055606 -0.145438 -0.198803 -0.152814 0.636257 -0.009797 0.479229 0.533821 -0.758379 -0.350804 -0.319246 0.480953 -0.074537 0.406121 0.122150 0.258709 -0.055971 0.031455 -0.304843 -0.371141 -0.066215 0.676772 0.571770 0.557837 0.351765 0.629804 0.471531 1.588866 -0.396999 1.063205 0.510439 0.021672 -0.394965 -0.539876 0.166630 -0.709609 -0.218652 -0.689220 -0.308895 -0.334263 -0.324551 -0.022756 0.081787 -0.144699 0.313019 0.103110 0.100953 -0.231042 -0.560858 0.349065 -0.105573 -0.143118 -0.525719 -0.075798 -0.240873 0.050312 0.489752 -0.045829 -0.701197 -0.253729 -0.272651 1.243350 0.549428 0.012461 -0.518769 0.377432 0.309916 -0.224291 0.645019
sauce 1.257054 0.827719 -0.074444 -0.400387 0.266037 0.606803 0.162954 0.139557 -0.666076 -0.152157 0.450490 -0.234974 0.256084 -0.455674 -0.087728 -0.611351 0.244255 -0.392836 0.454891 -0.098676 -0.204082 0.822567 0.107756 0.381855 0.736349 -1.229582 -1.279807 0.031906 -0.154933 -0.491109 0.164449 0.606615 -0.197686 -0.042000 0.073104 0.121836 -1.123861 -0.084383 -0.792682 0.003255 0.420567 -0.129557 -0.540911 -0.465886 -0.040682 0.267682 1.114749 -0.451008 -0.283300 0.239149 -0.017477 -0.882014 0.149953 -0.641353 0.625942 0.196906 -0.756417 -0.155528 -0.175525 0.499385 -0.426337 0.027481 0.587392 0.441129 -0.277880 -0.239847 -0.280378 -1.012071 -0.552364 0.540501 0.443582 -0.884106 0.464461 -0.681588 0.086874 0.701712 -0.629173 0.349425 -0.177173 -0.488849 0.491696 -0.339420 -0.487106 0.888903 0.515278 0.910302 0.770363 -0.472028 -0.154375 -0.571913 0.983148 0.270363 -0.261034 0.537743 0.379279 -0.498527 -0.481473 0.089776 -0.489393 0.096021
told 1.190474 -0.389490 0.398397 -0.244532 0.385472 0.326931 0.171098 0.045418 0.038505 -0.625083 -0.200621 0.197577 0.779661 -0.274300 0.521402 0.390697 0.087457 0.286227 0.315794 0.194870 -0.552819 0.397033 0.135809 0.050011 0.111530 -1.543297 0.364326 0.110237 -0.030121 -0.394520 0.173490 -0.438803 -0.221722 0.590693 -0.858340 -0.743348 -0.499459 -0.007354 -0.289137 -0.974628 0.015036 0.716593 0.381765 -0.304085 -0.779941 -0.594603 -0.382293 0.077673 -0.679977 -0.425875 0.087183 0.368543 0.951963 0.341960 0.174945 0.695575 -0.010083 0.136036 0.582806 0.295159 0.614630 -0.468340 -0.373578 0.712449 0.117424 0.176229 -0.411901 -0.170819 -0.711973 -0.396360 0.298331 0.156145 -0.116189 -0.796562 0.610288 0.406064 0.567077 -0.206836 0.109272 -0.044307 -0.148125 -0.065176 0.064032 0.088265 0.404192 0.076627 -0.172303 0.498278 0.095404 -0.120029 0.744119 -0.701802 0.913095 0.193405 0.449935 -0.959355 -0.855392 0.021434 0.212686 -0.645114
times 0.422112 0.903348 0.739912 0.209863 1.006562 0.033020 0.496231 -0.579661 -0.207349 0.364309 -0.008944 -0.290657 0.082395 0.179942 -0.302285 0.206418 0.808750 -0.510670 0.369689 0.301271 -0.262385 -0.208298 -0.412881 -0.116647 0.174332 -0.968378 0.792587 -0.388955 1.353665 0.510405 -0.044814 0.404340 -0.173489 -0.093058 0.051770 0.160837 -0.211747 0.851163 -0.305735 0.024343 -0.190347 -0.060140 -0.108160 0.080997 -0.217047 -0.303758 0.934191 -0.141851 0.018135 0.322200 -0.459462 0.620286 0.214441 -0.218780 0.332821 -0.066507 0.302965 0.180964 -0.142745 -0.478184 0.201619 -0.509640 -0.001494 -0.192297 -0.756552 -0.074390 -0.483847 0.261277 0.310984 0.941958 -0.073447 -0.920827 -0.781136 -0.825616 -0.053901 0.727886 0.393883 0.177804 0.606651 -0.122076 0.385318 -1.433214 0.342182 -0.238292 -0.030125 -0.371564 -0.185258 1.241491 -0.266230 0.034338 -0.384991 -0.311679 0.622632 0.181603 -0.545532 0.261640 0.259512 -0.181756 0.090203 -0.073645
table 1.057898 0.404449 0.649644 -0.501387 -0.565469 0.478437 0.193944 -0.169898 -0.428172 0.755427 -0.255006 0.259177 -0.087606 -0.887953 -0.423080 -0.460151 0.817998 0.600392 0.103619 -0.611787 -0.215569 0.300086 -0.292665 0.033466 -0.031333 -1.451733 0.138788 0.163783 0.661296 0.796782 0.493594 0.192941 -0.398570 0.017600 -0.041268 -0.421289 -0.221592 -0.251022 -0.245465 -0.415969 -0.182394 0.483789 0.660774 0.142457 0.667497 0.432185 0.379949 0.031437 0.029973 0.353185 -0.077916 -0.005087 0.363257 0.196709 -0.179136 0.690417 -0.027735 0.282294 1.074264 -0.070245 0.538079 0.516528 0.188149 0.411143 -0.003380 -0.237022 -0.619310 0.216384 0.126510 -0.393959 0.623096 -0.229610 0.612903 0.189583 0.669773 0.361199 0.359454 -0.458809 -0.919337 -0.109145 0.589774 0.002597 -0.338159 0.160911 -0.170182 0.570566 -0.667361 0.128048 -1.018567 -0.527107 1.008411 -0.187768 0.374825 0.775459 0.445107 0.300697 -0.749329 -0.165295 0.232238 0.271040
take 0.792621 -0.163777 0.466140 0.044964 0.695103 1.020438 0.223416 -0.008306 0.079520 0.347999 0.195413 -0.338438 -0.105499 -0.050528 0.274782 0.663668 0.409980 0.343196 0.240630 -0.093251 -0.353035 0.083374 -0.525149 -0.535852 0.091037 -0.388863 1.187650 0.035949 0.158939 0.154406 0.354210 -0.204468 -0.397929 0.161642 -0.012638 -0.210378 -0.615540 -0.132986 -0.239202 -0.526297 -0.200648 0.010213 0.739750 -0.396092 0.467083 -0.776057 0.047479 0.365795 -0.616358 0.685806 0.029613 -0.926695 0.273924 0.503940 0.246108 -0.650515 0.901714 -0.331838 1.141436 -0.009245 0.422047 0.223045 -0.059793 0.221609 0.462608 0.648876 -0.446193 -0.076080 -0.443348 0.217384 -0.170649 -0.363421 0.134822 -0.384484 0.171328 0.344580 -0.060614 0.512459 -0.160238 -0.080867 0.547506 0.052276 0.257939 -0.070687 -0.027155 0.352823 0.344315 0.213319 -0.664465 -0.154378 0.169628 -0.034086 0.849024 -0.826259 -0.236269 -0.686168 0.181981 0.110104 0.134286 -0.275764
around -0.380230 0.714883 0.531619 -0.619086 0.003320 0.912505 0.959703 -0.245361 -0.097057 0.136750 -0.085677 -0.564174 -0.066905 -0.492741 0.119901 -0.260647 -0.068213 0.388204 0.353677 -0.551217 0.612461 0.788812 -0.020310 -0.076091 0.188178 -0.833093 0.281095 0.505962 -0.534028 0.545824 0.335283 0.224106 0.251213 -0.045291 0.483933 -0.765046 0.227504 -0.014515 -0.150437 -0.415147 -0.936352 0.285037 -0.586968 0.652314 0.323979 0.400302 0.355106 0.014442 0.376941 0.223958 -0.533037 0.100688 0.321292 -1.152953 0.319198 -0.027293 0.344315 -0.546529 0.389354 0.161542 0.637102 -0.383135 -0.193713 0.773146 -0.120563 1.368983 0.077692 -0.033501 0.105424 -0.242816 -0.021455 -0.024973 -0.355853 -0.061583 0.613943 0.107130 0.271994 -0.472725 1.019316 -0.517068 0.857907 0.327797 0.252963 0.055616 -0.301802 0.401971 -0.582337 0.090157 -0.903868 -0.503707 0.559181 -0.108587 0.319040 0.007424 -0.034548 -0.149936 -0.702368 0.025595 0.341810 -0.668147
wasnt -0.288202 0.198804 0.263422 -0.431958 -0.771694 0.488285 0.033531 0.162681 0.072514 0.474337 -0.222585 -0.509522 0.236099 0.487416 0.203382 -0.036361 0.507373 -0.245869 0.522711 0.256774 0.725401 0.389157 -0.103845 0.689776 0.910795 -0.485980 -0.137026 0.563711 0.194249 0.580612 0.008284 -0.180601 -0.085900 -0.711250 -0.781546 -0.284369 0.142417 0.611260 -0.099438 -0.429360 0.377238 -0.288780 0.388081 0.398931 -0.662562 0.049953 -0.299567 0.196694 0.086231 0.327686 0.656556 -0.403213 -0.003940 0.187014 0.139628 0.106195 -0.257776 0.659021 0.668961 -0.180134 0.116213 0.202275 -1.047858 0.261843 -0.219161 -0.310582 -0.212404 0.606776 -0.520809 0.274565 -0.610760 -0.593004 -0.533782 -0.220965 0.614490 -0.125307 -0.662055 0.180692 0.555086 -0.200813 0.509337 0.370099 0.342893 0.394781 -0.545043 0.052999 -0.580596 -0.120383 -0.566721 -0.063814 0.357122 -0.807150 0.729315 0.352042 -0.081206 -0.375204 -0.192301 -0.383577 -0.050467 -0.113355
another 0.380505 -0.336805 0.302517 -0.776867 -0.060311 0.309862 0.692282 0.034118 0.067892 -0.918841 -0.302181 -0.092994 -0.024613 -0.010350 1.017006 0.175523 0.728443 0.413308 -0.229328 -0.926410 -0.571044 -0.067976 0.196344 -0.081715 0.032973 -0.890792 0.480948 -0.057224 0.887003 0.646729 -0.141487 -0.376880 -0.434097 -0.023414 0.357153 0.420902 0.313186 0.147880 -0.044752 -0.130802 0.023466 -0.142717 0.279322 -0.062336 -0.536546 0.681480 0.431685 -0.264690 -0.242982 -0.504455 -0.367787 -0.399996 0.060028 0.268157 0.202262 -0.110569 -0.404474 0.197669 0.298807 0.711229 0.586788 -0.435446 0.223974 0.357483 -0.351197 0.352073 -0.119106 0.657723 -0.055019 0.340172 -0.435024 0.060199 0.648315 0.877310 0.578094 -0.465135 0.566668 0.015333 0.386339 0.447658 0.769787 -0.185501 0.119424 0.542427 0.260685 -0.106020 -0.057850 0.477746 0.019833 -0.282767 0.350331 -0.358266 1.273526 0.637954 0.410565 -0.521484 -0.474690 0.167691 0.468415 0.496397
bit -0.391546 0.394118 0.095907 -0.725983 0.282704 0.545901 -0.356657 0.222605 -0.536729 0.500052 -0.298961 0.455445 0.460217 0.114440 -0.378288 -0.510685 -0.210591 -0.064916 -0.279053 -0.041558 0.337486 0.409069 0.011873 -0.250618 1.393196 -0.573835 -0.462009 0.160340 0.870292 0.325553 0.039348 0.129903 -0.415120 -0.493658 0.121457 -0.179060 0.639963 0.133612 -0.098036 -0.350737 0.138696 0.195355 0.682245 0.060142 0.035972 0.752618 0.529859 0.406972 0.555764 -0.091159 -0.459671 -0.111395 -0.111100 0.024448 -0.466927 -0.462197 -0.403324 0.236842 0.228055 0.568795 -0.343468 0.410125 0.071836 -0.156342 -0.200280 0.283949 -0.531341 0.845138 -0.463369 0.321567 0.320762 -0.726694 -0.374607 -0.145995 0.361586 0.651061 0.109644 0.725963 -0.281996 0.110756 0.694009 0.437212 -0.623775 0.655827 0.533163 1.025039 -0.168902 0.214735 -0.055647 0.392970 0.386409 0.463514 0.979075 -0.467781 -0.107987 0.377721 -0.450762 0.143652 -0.811020 -0.510518
salad -0.240577 0.421836 0.556215 0.884387 -0.406939 -0.004616 -0.126024 -0.277296 0.426131 -0.429421 -0.492211 -0.654954 0.252989 0.170783 0.560364 -0.149466 0.362735 -0.690362 -0.075005 0.819660 0.297207 0.400143 -0.077023 0.439296 0.635258 -0.401370 -0.867729 0.503064 0.007899 -0.458428 0.284014 0.412386 -0.432206 -0.069322 -0.274784 -0.429668 -0.195244 0.747167 -0.827557 0.496353 0.061695 0.319899 -0.624284 0.417266 -0.253562 0.942297 0.675556 0.518712 -0.314419 0.504216 -0.010950 -0.793829 0.288580 0.480424 -0.488081 -0.949512 -0.281957 -0.210602 -0.159316 0.185874 0.329892 -0.336050 0.426723 0.172103 -0.230370 0.666716 -0.318063 -0.101583 0.004901 1.015258 0.125724 -1.225811 0.319525 1.204528 -0.425177 0.379667 -0.219854 0.675880 0.513320 -0.679088 0.055995 -0.030364 0.159249 1.041578 -0.209871 -0.559101 -0.149201 0.437836 0.130219 0.428108 0.572149 0.494597 0.630577 0.095667 0.215573 -0.094344 0.672553 -0.478646 -0.332644 0.582048
since 0.322036 0.103671 0.888177 0.136270 0.285136 0.866560 0.151309 -0.626098 0.492455 -0.408246 0.521676 0.094765 -0.295949 -0.339142 -0.084985 0.323714 1.022400 -0.098922 0.427445 -0.399496 0.198349 0.946822 -0.955836 -0.209657 0.325482 -0.273763 0.042515 -0.709864 0.404574 0.433719 -0.494515 0.458101 0.143517 -0.350163 0.181572 -0.709718 0.072360 0.485505 0.452509 -0.597779 -0.068836 -0.023843 0.096965 0.691933 -0.055518 0.526525 0.344912 -0.253798 -0.361745 0.233668 0.179299 -0.651408 0.221286 -0.274729 0.159946 0.079408 -0.564527 -0.013403 0.533074 -0.565967 0.344021 0.747621 0.094955 0.608912 -1.381180 0.258699 -0.853858 0.227702 -0.059735 -0.130813 0.312837 -0.517677 -0.049705 -0.576107 -0.396040 -0.216672 0.085345 -0.414698 0.007797 -0.512804 -0.289478 -0.494635 -0.100183 0.236081 0.420262 -0.217113 -0.217119 -0.093217 -0.476255 0.222858 -0.180089 -0.801287 0.792815 0.338604 -0.345037 0.212558 -0.533581 -0.583510 0.151167 -0.506575
cheese -0.401600 -0.052010 0.952801 0.177711 -0.348576 -0.289410 0.097109 -0.066273 0.325674 -0.430555 0.010712 -0.011106 -1.088937 -0.212133 0.374685 -0.929190 0.801262 -0.819331 -0.344752 0.048133 -0.126215 0.264924 -0.194588 0.712106 0.441774 -0.589995 -1.233864 0.307842 0.187938 0.573802 -0.257585 0.798291 0.076518 0.188433 -0.052580 0.660875 -0.596298 0.451145 -0.222167 0.837660 0.070259 -0.657474 0.066240 0.805863 -0.260213 0.223128 0.237230 -0.299519 0.481756 -0.044169 0.712823 -0.818854 0.044838 0.221445 0.180902 0.045315 -0.466332 0.231018 -0.011012 -0.129935 0.163085 -0.425931 0.072075 -0.189055 -0.001733 0.606024 -0.162950 -0.311718 -1.010301 0.601874 0.513758 -1.183245 0.134253 0.429696 0.372977 0.400107 0.120263 1.206790 0.015924 -0.552758 -0.420982 0.486232 -0.228182 0.931807 0.403172 0.698819 0.308402 -0.937134 -0.787921 -0.202065 0.304704 -0.852252 0.148125 -0.470861 -0.162587 -1.268573 -0.408469 0.287897 0.022766 -0.010593
lunch 0.439933 0.170936 0.521978 -0.067699 0.672945 -0.223968 -0.427777 0.119460 0.405257 0.196648 0.390794 -0.421634 -0.247348 0.252035 -0.105901 -0.188712 0.682379 -0.764064 -0.413653 0.909384 -0.012211 -0.412028 -0.096741 -0.323395 0.883471 0.291527 0.529597 0.259898 0.803768 -0.133218 -0.287981 -0.497232 0.056109 0.440696 0.044742 0.242997 0.142686 1.018322 -0.016098 -0.599943 -0.084781 0.423933 -0.306200 0.409295 0.159678 0.372327 1.140803 0.433669 -0.841801 0.364122 -0.787007 -0.244976 0.231477 0.256583 0.643776 -0.455902 0.033316 0.703137 0.521365 0.332372 0.734661 0.180860 -0.096127 0.238057 0.684698 1.292238 -0.413186 0.120304 0.443568 0.330373 0.223813 -0.967973 -0.455057 -0.662265 -0.403924 0.658701 0.076075 -0.141195 0.107171 -0.854112 0.152581 0.502012 -0.222700 -0.021663 -0.165165 0.138186 0.096882 0.210171 -0.825212 -0.151029 0.290684 -0.028687 0.410429 0.097055 -0.212894 -0.347728 0.112970 -0.205761 0.167023 -0.119883
bad 0.394225 0.540597 -0.420000 -0.362196 0.213727 -0.069947 0.419553 -0.946469 -0.332206 -0.330831 -0.343260 0.164835 0.069823 0.442351 0.914918 0.140596 0.524235 -0.237167 -0.137661 0.069793 -0.094868 0.327089 0.344027 0.635811 0.601123 0.266211 0.226437 -0.195024 0.354492 -0.072300 0.026128 0.261099 -0.310598 0.457890 0.279769 -0.609283 -0.388467 0.546676 -0.006672 -0.452900 -0.419999 -0.283136 -0.316586 -0.872009 -0.214570 0.189738 -0.042916 -0.852184 -0.678900 0.856919 0.264551 -0.637832 0.676178 0.134652 0.753464 0.397361 -0.240804 0.140823 -0.176945 -0.077873 0.340611 0.080923 -0.631979 0.327255 -0.780726 -0.191312 -0.455662 0.016683 -0.865650 0.697820 -0.898193 -0.951398 0.021674 -0.316986 0.574293 0.001387 0.056869 0.447393 0.737628 -0.344023 -0.233297 -0.092996 0.076737 -0.443440 -0.364123 -0.361097 -0.258768 0.021192 0.116973 0.046263 -0.325293 -0.573613 0.475732 -0.272817 -0.326106 0.023253 -0.003000 0.071360 0.015601 0.474869
sure -0.387974 0.363190 0.583658 0.024882 -0.004276 0.607917 0.095630 0.858232 0.466352 -0.351832 -0.187980 -0.681086 -0.013748 0.381594 0.555864 0.357144 0.756709 -0.016619 0.903031 0.491437 0.427170 0.321373 -0.068153 -0.072345 0.510323 -0.405682 0.590622 -0.017412 0.088450 -0.248375 -0.770090 -0.277028 0.196401 -0.372069 -0.611039 -0.200647 -0.099470 0.268545 -0.644245 -0.738216 -0.262666 -0.060470 -0.080756 -0.205593 0.222519 -0.205467 -0.638699 0.453446 0.158101 -0.058465 0.062643 0.055482 0.153508 0.016470 0.384882 -0.759092 0.529312 -0.456445 0.175763 0.323097 -0.157949 0.057507 -0.377033 0.820655 -0.744204 0.167214 -0.940573 -0.073428 -0.021292 0.090856 -0.084060 -0.444334 -0.294632 -0.302803 -0.271801 0.617718 0.345797 0.268727 1.130499 0.017765 0.538005 0.327510 -0.782461 -0.043133 0.667083 0.247222 -0.189624 0.508256 -0.361989 0.213951 0.078070 0.328346 -0.153900 0.224464 0.131213 -0.892460 0.023523 0.566510 0.117255 0.023815
area -0.004827 0.032814 0.713003 -0.586749 0.017000 0.361675 1.249883 -0.380524 -0.058310 -0.063706 -0.240813 -0.871512 -0.423537 0.067104 0.001015 0.257872 0.515785 0.188005 0.058532 -0.054755 0.523420 -0.109997 -0.200795 0.217145 -0.075378 -0.065260 0.564465 -0.243293 0.366481 -0.234040 -1.027506 0.108476 0.153859 -0.549252 0.295261 -1.681038 0.071345 0.211103 0.400362 -0.016178 -0.604632 0.087263 -0.198012 -0.673200 -0.156896 0.302165 -0.486844 0.144161 -0.510447 0.850946 0.355883 -1.089101 -0.231630 -0.051758 0.799564 -0.434142 -0.880332 -0.043229 -0.307170 0.375074 -0.569376 -0.178981 -0.131469 -0.784613 -0.660143 0.973597 -0.345584 0.921876 0.121600 0.025452 -0.299645 0.031992 0.454183 -0.253885 -0.098281 0.193990 -0.184317 -0.189231 0.126841 0.293834 0.592291 -0.447702 -0.210804 -0.162365 0.104688 -0.057468 -0.437571 -0.060308 -0.904105 0.320688 0.565696 0.500864 0.028824 -0.016438 0.597616 -0.170515 -0.683637 0.482773 0.802366 -0.149196
pizza -0.349632 0.299074 0.639396 -0.404273 0.186407 -0.793323 -0.485306 -1.162112 0.190755 0.522354 0.666565 -0.636139 -0.062370 0.357246 0.705189 -0.224142 0.785513 -0.336710 0.281111 0.145318 0.873249 0.299546 -0.745010 0.017532 0.056404 -0.253091 -0.430617 0.725210 -0.407523 -0.227968 0.048119 0.592789 -0.096699 0.252930 -0.098573 -0.404009 -0.940989 0.056011 -0.039581 -0.303705 0.239334 0.370413 -0.084093 0.372899 -0.564043 0.463599 0.577854 0.220354 0.093572 0.501537 0.128810 -0.017176 0.187496 0.039783 0.492652 0.394938 -1.097890 0.624664 0.541051 -0.186469 -0.337352 -0.657922 0.050268 0.023709 -0.006219 0.494786 0.535343 -0.268514 -1.337333 0.398622 0.321226 -0.318554 0.871174 0.297783 0.097963 -0.803201 0.290375 -0.234497 0.408516 0.139558 -0.050961 -0.337862 0.783860 0.504627 -0.155397 0.118693 -0.520283 -0.623460 -0.688970 -0.849829 0.658139 -0.716514 -0.397750 0.066467 -0.069766 0.016466 -0.605646 1.063456 0.608501 0.271299
location -0.197920 -0.575101 0.805549 -0.981641 0.223040 -0.122718 0.366755 -0.038759 -0.207000 0.215245 -0.105747 -0.901022 -0.215661 0.675972 -0.414104 0.461029 0.527365 0.028504 0.101903 -0.781088 0.495367 0.426915 0.364902 0.144992 0.593651 -0.770285 0.548060 -0.342719 0.864944 0.500527 -0.776908 0.073419 0.153354 -0.541279 0.632853 -0.807800 0.584508 -0.224293 0.061913 -0.410638 -0.154085 -0.632569 0.526312 0.361144 -0.368725 0.561827 0.204050 -0.581169 -0.228473 0.232199 0.128885 -0.342021 -0.369547 -0.761118 0.320642 -0.014549 -0.186128 -0.167979 0.527235 -0.161752 0.623864 -0.446188 0.492198 0.071830 -0.275607 -0.207709 0.318800 0.152860 0.177840 0.501423 0.208282 -0.091360 0.646459 0.407583 -0.240360 -0.971250 -0.208545 -0.012189 0.185450 0.176669 0.169420 -0.982098 -0.120290 -0.414280 0.087508 0.191650 0.324279 -0.170368 0.271521 -0.122886 0.445541 -0.530580 0.718301 -0.443228 -0.906585 -0.073515 0.779790 0.471840 -0.117516 -0.291646
next 0.379901 0.579608 0.456360 -0.056121 0.182921 0.399460 -0.174432 0.011423 -0.269802 -0.027606 0.226902 0.041553 0.394934 1.061767 0.453650 1.059547 1.306244 -0.285162 0.032813 0.205284 -0.415733 0.161560 -0.478561 -0.502627 0.630695 -0.860663 0.280955 0.182517 0.161468 0.353835 -0.012256 -0.108196 0.115131 0.495772 0.144717 -0.468374 -0.401392 0.081489 -0.300978 0.167878 0.480533 -0.447931 0.317466 -0.112488 0.166518 0.864794 -0.882182 0.298948 -0.560070 0.003310 -0.386809 -0.992634 -0.061216 0.374099 0.357678 0.426159 0.303650 0.410297 0.809086 0.606896 0.122021 -0.204619 0.212207 -0.185380 0.150240 0.665123 -0.072626 0.502191 0.710150 0.143930 0.826989 -0.198605 -0.425879 -0.110496 0.398740 -0.330797 -0.272081 -0.384984 -0.286474 -0.436434 0.371686 -0.041221 -0.876834 -0.380342 0.783099 -0.839208 0.077713 0.345234 -0.412952 0.451794 0.850476 0.877884 0.243760 0.706285 -0.215070 -0.230725 -0.039271 -0.336563 0.719469 -0.650912
price -0.543497 0.519965 -0.731733 -0.286841 0.470729 0.194643 -0.259656 -0.395971 0.156400 0.035969 0.295094 -0.254162 0.662509 -0.009505 0.421268 0.158691 -0.392579 -0.001074 0.700192 -0.110988 0.608557 0.036895 -0.528858 0.405667 0.778249 -0.973830 0.114035 0.071911 0.443925 0.330490 0.377825 0.194740 -0.714008 0.120241 0.448573 0.064549 0.062486 -0.035783 -0.804168 -0.293946 -0.206327 0.121989 0.388703 -0.110541 -0.620791 0.366406 -0.452672 0.602950 0.168457 0.503387 -0.743415 -1.162137 0.037531 -0.439546 0.537536 -0.421467 -0.424640 -0.196025 0.320431 -0.740367 0.838947 -0.065552 0.664586 0.501257 0.292911 0.753227 -0.077778 -0.206433 0.144001 0.184546 -0.616535 -0.819910 -0.288484 -0.257171 -0.326750 -0.555297 -0.400745 0.162004 0.326710 0.378789 0.023414 0.414451 -0.988296 0.448881 0.157069 -0.053232 -0.412152 -0.336481 0.345180 -0.039084 -0.171833 -0.649548 0.737988 0.233265 -0.199935 0.575086 0.017158 0.719055 0.631020 -0.351283
stars -0.823050 -0.072127 -0.152923 0.188113 -0.532788 0.535574 0.213684 -0.377931 0.005769 0.841180 0.114218 1.334693 0.441288 -0.160543 0.599638 0.279377 -0.166739 0.359526 0.085393 0.194607 -0.249137 -0.081253 -0.195100 0.133391 1.435019 -0.547610 0.107984 0.710496 0.667568 -0.496159 -0.053564 0.129446 -0.063329 -0.404656 0.093671 -0.114963 -0.250824 -0.203069 -0.822717 0.095671 -1.201987 -0.437763 0.351989 0.479226 -0.302698 0.582022 0.075056 -0.843757 -0.417585 -0.849067 0.346007 0.227145 0.587203 0.390291 0.543351 -1.073163 0.221419 -0.306531 -0.544391 0.086988 0.424704 -1.105885 -0.137219 -0.068485 0.019373 -0.137565 0.194310 -0.582131 -0.157618 0.267340 0.882621 -0.616594 -0.354389 -0.501923 0.698526 0.354918 0.129668 0.578131 -0.667379 0.024895 -0.821433 0.442075 -0.890951 0.435029 0.007169 -0.228963 0.396649 0.054301 0.272003 1.020352 0.680592 -0.361018 0.570157 -0.203572 -0.137715 0.477080 -0.203452 -0.150117 0.697075 0.396117
eat 0.067789 -0.001645 0.076421 0.097355 -0.096132 0.060991 0.399421 -0.476678 0.060046 0.094225 -0.522697 0.496847 -0.454892 0.006283 -0.389500 -0.044999 0.313613 0.524646 -0.375868 -0.003980 -0.306172 -0.279876 -0.320642 -0.187331 0.288053 -0.019988 0.232770 -0.027071 -0.164614 0.438185 -0.621483 0.077595 -0.330925 0.058429 0.692470 0.342098 0.235433 0.715452 0.012804 0.659814 -0.323687 0.442422 0.701546 0.332193 -0.280007 0.611041 0.637528 0.257518 -0.243880 0.613322 -0.321997 -0.516764 0.042581 -0.200622 0.693506 0.173423 -0.089561 -0.004374 -0.249109 0.651069 -0.843855 0.032224 -0.529880 0.413003 -0.713417 1.099582 -0.147443 -0.123151 -0.131566 0.798009 0.432934 -1.318988 -0.167241 -0.244887 0.045756 -0.233858 0.415879 0.310883 0.561767 -0.613933 1.141269 -0.184655 0.397508 0.353097 -0.335111 0.396411 0.772331 0.552208 -0.187784 -0.275877 0.598065 -0.212590 0.755627 0.301770 -0.158912 0.101573 -0.342367 -0.221145 0.056590 0.486586
fries -0.454211 0.175178 0.327029 -0.556543 -0.164173 -0.325379 -1.283931 -0.234526 0.587005 0.202009 -1.012960 0.109930 -0.195076 -0.558765 0.446270 -0.241317 0.172528 0.156815 0.402807 -0.032586 0.147307 0.553704 -0.075835 0.785420 0.960996 -0.295402 -0.601987 0.388280 -0.004147 0.731588 -0.036271 0.458799 -0.053335 -0.772746 0.104913 0.448492 -0.056981 0.023230 -0.949212 -0.047566 0.118489 -0.061591 -0.255945 -0.324975 0.330623 -0.300845 0.518244 0.121970 0.480515 0.358552 0.588110 -0.745699 0.485549 -0.091441 -0.023725 -0.994807 0.039344 0.677905 0.181495 0.250312 -0.288230 0.154275 -0.394085 0.692560 -0.484630 0.324723 -0.314976 -1.304660 -0.657955 0.046578 -0.585589 -0.961034 0.557089 0.081084 -1.605856 0.236900 -0.124370 1.003908 0.027049 0.210325 0.255842 -0.107820 -0.403770 0.599994 -0.356955 0.086285 0.676291 0.616610 0.011252 0.212680 -0.193318 -0.909118 0.114988 0.042357 0.069344 -0.607216 -0.254493 -0.057159 -0.442177 0.351151
last 0.523426 0.135784 0.252484 0.238874 0.399977 0.206502 -0.233982 -0.283629 0.182104 0.161823 0.216149 0.687586 0.140587 0.143544 -0.212041 1.130170 1.005318 -0.221611 0.517891 -0.474802 -0.544070 0.606394 -0.064172 -0.303340 0.179165 -0.632942 0.826671 0.174588 0.731781 0.274385 -0.137684 0.223295 0.208309 -0.187776 -0.108237 0.179345 0.578379 0.963806 -0.399437 -0.313401 0.311294 0.323371 0.645915 -0.312660 -0.878894 0.049108 1.451351 -0.208775 0.428592 0.105150 -0.921392 0.248834 -0.101260 -0.053717 0.811797 -0.002351 0.116464 0.073757 1.126198 0.326177 -0.196543 0.305798 -0.162091 -0.501830 -0.385369 0.309040 -0.120371 -0.021100 -0.134744 0.453515 0.383837 -0.154277 -0.711966 -0.172284 -0.109339 -0.280446 0.175049 -0.107508 -0.213371 -0.520576 -0.662655 -0.564076 0.568486 0.268683 0.315739 0.005238 -0.038370 0.712123 0.012097 -0.197678 0.070166 -0.042010 0.410741 0.855363 0.384783 0.719679 0.035549 0.636935 0.255985 -0.792245
many -0.122748 0.798615 0.289440 -0.130644 0.363044 -0.305250 0.934534 -0.193091 0.255562 -0.334385 -0.096785 0.244347 0.454563 -0.460055 -0.240310 0.398071 1.136416 0.352702 0.098736 0.512363 -0.015501 0.073983 -0.505127 0.464564 0.433099 -1.089498 0.742701 -0.294414 1.128871 -0.122442 0.271503 0.025617 -0.247430 -0.533859 -0.495866 0.246634 -0.621500 -0.372521 0.008093 0.150640 -0.838106 -0.070844 0.473448 0.208704 0.283078 0.451523 -0.176466 0.167845 0.438917 0.049456 -0.356747 0.010532 0.285622 0.004266 0.196329 -0.860750 0.332183 0.309279 -0.038705 -0.572870 0.328221 -0.438762 -0.545702 -0.279129 -0.148894 -0.105617 -0.961311 -0.009374 0.630231 0.971529 -0.406646 -0.340011 -0.265208 -0.532421 0.417019 0.447105 0.326546 -0.129884 0.359186 -0.370953 -0.519139 -0.335712 0.122241 -0.289738 0.383103 -0.261269 0.430421 0.185241 -0.855530 -0.513102 0.039803 -0.555158 -0.061267 -0.049405 -0.626150 -0.374686 -0.767966 0.159518 -0.508686 -0.181121
tried -0.247330 -0.014015 -0.184231 -0.653938 0.444427 0.359295 0.183675 -0.974705 0.059017 0.507292 -0.180938 -0.144288 0.242681 -0.546348 0.266973 0.097863 0.533955 -0.356098 -0.386630 0.776000 0.813029 0.225333 -0.136590 -0.066842 0.174086 -0.221143 0.701615 -0.070487 0.156049 0.497208 0.160822 -0.260227 0.417985 0.161312 -0.141969 -0.099541 -0.130447 0.448089 0.102358 0.222156 -0.140488 -0.425728 -0.121909 0.501219 0.744499 0.053197 0.847712 0.086012 -0.448629 -0.014694 0.375876 0.491707 0.165738 -0.136038 0.412931 -0.179387 0.139267 0.529023 0.493627 -0.215884 -0.092919 -0.042121 -0.167191 0.169057 -0.377949 0.216523 0.696907 0.077262 0.299482 -0.174746 0.559143 -0.058210 -0.577979 -0.773911 -0.505185 0.416459 1.258952 0.529082 0.230655 0.263640 -0.097445 -0.087687 0.589376 -0.058110 0.362353 0.331305 0.646208 0.252196 -0.794154 0.181328 0.337375 -0.821698 0.800460 0.962162 0.691157 0.099684 -0.153429 -0.268311 -0.576508 -0.130131
customer -0.183954 0.262224 0.017801 -0.453587 0.775725 0.381434 -0.017414 -0.074005 0.078754 -0.570660 0.117705 -0.701584 -0.310956 0.945217 0.237831 0.727328 0.000276 -0.123612 0.884394 -0.595070 0.415269 -0.384938 -0.862739 -0.244635 0.317840 -0.689732 0.431501 0.077025 0.495355 -0.509265 -0.893400 -0.139257 0.494338 -0.552862 0.596009 -0.103068 0.152480 0.136993 -0.460346 -0.684993 -0.611235 -0.602183 0.039287 0.213556 0.213933 -0.123695 -0.439804 -0.698569 -0.203851 -0.245867 0.266400 -0.471505 0.410907 0.319607 0.521459 0.096997 0.563800 0.466615 -0.431795 0.022759 0.260809 -0.241425 0.248154 0.724673 -0.888711 -0.034381 -0.416797 -0.929031 0.261606 0.119935 0.165259 -0.199962 -0.523911 0.371868 0.273481 -0.767230 -0.105043 -0.288105 0.187396 0.841210 0.112569 0.068132 -0.433312 -0.130890 0.107235 -0.923080 0.743866 0.058200 -0.163151 -0.654232 -0.075220 -0.467271 1.138565 0.223497 0.153791 0.039458 0.203751 -0.622955 -0.184880 0.304922
car 0.605088 -0.875490 -0.215442 -0.005412 -0.110130 0.322818 0.390167 -0.451799 0.504754 -0.709319 -0.123083 -0.752363 0.086741 0.117524 1.207124 0.720716 -0.374399 -0.123182 0.217930 -0.190281 -0.253787 -0.784498 0.368168 -0.890543 -1.084774 -0.509145 0.536018 0.239159 -0.261482 0.601757 -0.043411 -0.486247 -0.369291 0.633913 -0.104812 -0.174062 0.688243 -0.243930 0.641625 -0.187349 0.017986 -0.492318 0.775340 0.232957 0.147146 -0.081162 -0.653239 -0.416893 0.018157 -0.025475 -0.096053 -0.588164 -0.234953 -0.051246 0.131117 0.684951 0.458185 -0.038198 0.124629 0.609252 1.577487 0.886243 -0.385219 0.237967 0.313243 0.379001 -0.329356 -0.202053 -0.542720 -0.110353 0.373449 -0.547813 -0.352896 -0.610017 0.486269 -0.862347 0.069064 -0.380003 0.339906 0.079203 0.201574 -0.112936 -0.414390 -0.614695 0.028835 -0.352698 0.078816 -0.518381 0.795486 -0.374789 0.512943 -0.885658 1.628320 0.015683 0.183284 -0.006986 0.244513 -0.137561 -0.104049 -0.541468
night 0.451497 0.312818 0.058913 0.062201 0.267126 0.349034 0.304110 0.077387 0.717867 0.587772 0.305291 0.136757 -0.039522 0.362357 -0.667732 -0.032734 0.585221 0.783744 -0.295878 0.499297 -0.064824 0.554206 -0.082557 -0.406496 0.426536 -0.736273 0.532161 0.537667 0.997806 0.189979 -0.124500 -0.814117 -0.017754 -0.583202 -0.312855 -1.149918 0.530809 0.512494 -1.060762 -0.114604 -0.266254 0.441960 0.044155 -0.385585 -0.827793 -0.334356 0.777960 -0.507797 -0.043063 0.640450 -0.038046 0.498081 -0.150849 -0.041260 0.646927 -0.242687 0.524349 -0.112921 1.041079 -0.038153 0.463392 0.113325 -0.225308 -0.468549 -0.281420 0.426409 -0.307522 0.300010 0.230439 0.303592 0.256036 -0.033053 0.494648 0.545273 0.216671 0.277014 0.310783 -0.475966 0.032536 -0.394863 -0.125144 0.639138 -0.292015 0.389638 -0.094447 -0.489060 -0.107146 -0.110649 -0.363366 -0.427607 0.038796 -0.238981 -0.258371 0.686857 0.224890 0.678901 -0.283782 -0.073857 0.923887 -0.208935
asked 0.280333 0.169126 0.430818 -0.436993 0.356666 0.262638 -0.117102 0.123220 -0.466278 0.542778 -0.615545 -0.049547 0.455097 -0.202321 0.973752 0.517437 -0.099861 0.389860 -0.101797 -0.011514 -0.662886 -0.033891 0.445448 0.863088 0.140322 -0.622114 -0.060402 0.015299 0.375549 -0.267643 0.158828 -0.355166 -0.981576 -0.015164 -0.953566 0.135830 -0.520052 0.171038 0.128176 -0.070450 -0.323246 0.114159 0.684469 -0.688707 0.056706 -0.765954 -0.630356 0.435471 0.246778 -0.180164 0.381714 -0.138008 0.320334 0.012617 0.425240 0.204491 0.015256 0.621277 0.817198 0.612160 -0.043376 -0.588919 -0.752213 0.183292 -0.749057 -0.086694 -0.281591 -0.134212 -0.027392 0.130329 -0.378050 -0.558452 0.699816 -0.459923 -0.056879 0.686544 0.397635 0.398074 -0.305915 -0.645349 0.438467 -0.210831 0.507746 -0.558599 0.115337 -0.383431 0.362147 0.514034 -0.055044 0.090403 0.647211 -0.755852 0.594425 0.274739 0.559994 -0.864764 -0.626087 0.023005 0.654878 -0.220390
